digraph Tree {
node [shape=box, style="filled, rounded", color="black", fontname="helvetica"] ;
edge [fontname="helvetica"] ;
0 [label=<log1p(Current checking account balance) &le; 7.346<br/>squared_error = 27.046<br/>samples = 15620<br/>value = 5.798>, fillcolor="#f4c8a9"] ;
1 [label=<log1p(Current checking account balance) &le; 5.278<br/>squared_error = 16.06<br/>samples = 5538<br/>value = 3.05>, fillcolor="#f9e2d2"] ;
0 -> 1 [labeldistance=2.5, labelangle=45, headlabel="True"] ;
2 [label=<Highest level of educational attainment &le; 9.5<br/>squared_error = 8.053<br/>samples = 2053<br/>value = 1.372>, fillcolor="#fcf2eb"] ;
1 -> 2 ;
3 [label=<Typical year income &le; 0.102<br/>squared_error = 6.551<br/>samples = 1669<br/>value = 1.117>, fillcolor="#fdf4ee"] ;
2 -> 3 ;
4 [label=<Age of individual &le; 89.0<br/>squared_error = 6.055<br/>samples = 1642<br/>value = 1.053>, fillcolor="#fdf5ef"] ;
3 -> 4 ;
5 [label=<log1p(Total education loan borrowed) &le; 10.83<br/>squared_error = 5.862<br/>samples = 1634<br/>value = 1.027>, fillcolor="#fdf5f0"] ;
4 -> 5 ;
6 [label=<Typical year income &le; 0.001<br/>squared_error = 5.769<br/>samples = 1610<br/>value = 0.998>, fillcolor="#fdf6f0"] ;
5 -> 6 ;
7 [label=<Age of individual &le; 38.5<br/>squared_error = 6.825<br/>samples = 1049<br/>value = 1.16>, fillcolor="#fdf4ee"] ;
6 -> 7 ;
8 [label=<Years in college &le; 3.5<br/>squared_error = 4.316<br/>samples = 262<br/>value = 0.587>, fillcolor="#fef9f6"] ;
7 -> 8 ;
9 [label=<log1p(Current checking account balance) &le; 4.983<br/>squared_error = 3.268<br/>samples = 255<br/>value = 0.48>, fillcolor="#fefaf8"] ;
8 -> 9 ;
10 [label=<Age of individual &le; 34.5<br/>squared_error = 2.276<br/>samples = 246<br/>value = 0.357>, fillcolor="#fefcfa"] ;
9 -> 10 ;
11 [label=<Years in college &le; 1.5<br/>squared_error = 1.11<br/>samples = 179<br/>value = 0.17>, fillcolor="#fffdfc"] ;
10 -> 11 ;
12 [label=<log1p(Current checking account balance) &le; 0.347<br/>squared_error = 0.106<br/>samples = 159<br/>value = 0.045>, fillcolor="#fffffe"] ;
11 -> 12 ;
13 [label=<squared_error = 0.0<br/>samples = 105<br/>value = 0.0>, fillcolor="#ffffff"] ;
12 -> 13 ;
14 [label=<log1p(Current checking account balance) &le; 1.242<br/>squared_error = 0.302<br/>samples = 54<br/>value = 0.133>, fillcolor="#fffefd"] ;
12 -> 14 ;
15 [label=<Age of individual &le; 26.5<br/>squared_error = 1.078<br/>samples = 12<br/>value = 0.599>, fillcolor="#fef9f6"] ;
14 -> 15 ;
16 [label=<squared_error = 0.0<br/>samples = 5<br/>value = 0.0>, fillcolor="#ffffff"] ;
15 -> 16 ;
17 [label=<Age of individual &le; 29.0<br/>squared_error = 1.408<br/>samples = 7<br/>value = 1.028>, fillcolor="#fdf5f0"] ;
15 -> 17 ;
18 [label=<squared_error = 0.0<br/>samples = 3<br/>value = 2.398>, fillcolor="#fae8db"] ;
17 -> 18 ;
19 [label=<squared_error = 0.0<br/>samples = 4<br/>value = 0.0>, fillcolor="#ffffff"] ;
17 -> 19 ;
20 [label=<squared_error = 0.0<br/>samples = 42<br/>value = 0.0>, fillcolor="#ffffff"] ;
14 -> 20 ;
21 [label=<Age of individual &le; 28.5<br/>squared_error = 7.98<br/>samples = 20<br/>value = 1.162>, fillcolor="#fdf4ee"] ;
11 -> 21 ;
22 [label=<Age of individual &le; 23.5<br/>squared_error = 17.159<br/>samples = 3<br/>value = 5.858>, fillcolor="#f4c8a8"] ;
21 -> 22 ;
23 [label=<squared_error = 0.0<br/>samples = 1<br/>value = 0.0>, fillcolor="#ffffff"] ;
22 -> 23 ;
24 [label=<squared_error = 0.0<br/>samples = 2<br/>value = 8.787>, fillcolor="#eeac7c"] ;
22 -> 24 ;
25 [label=<log1p(Current checking account balance) &le; 4.705<br/>squared_error = 1.782<br/>samples = 17<br/>value = 0.334>, fillcolor="#fefcfa"] ;
21 -> 25 ;
26 [label=<squared_error = 0.0<br/>samples = 15<br/>value = 0.0>, fillcolor="#ffffff"] ;
25 -> 26 ;
27 [label=<log1p(Total education loan borrowed) &le; 3.801<br/>squared_error = 8.047<br/>samples = 2<br/>value = 2.837>, fillcolor="#f9e4d5"] ;
25 -> 27 ;
28 [label=<squared_error = 0.0<br/>samples = 1<br/>value = 5.673>, fillcolor="#f4c9ab"] ;
27 -> 28 ;
29 [label=<squared_error = 0.0<br/>samples = 1<br/>value = 0.0>, fillcolor="#ffffff"] ;
27 -> 29 ;
30 [label=<Age of individual &le; 35.5<br/>squared_error = 5.05<br/>samples = 67<br/>value = 0.855>, fillcolor="#fdf7f2"] ;
10 -> 30 ;
31 [label=<Highest level of educational attainment &le; 3.5<br/>squared_error = 10.186<br/>samples = 23<br/>value = 1.835>, fillcolor="#fbeee4"] ;
30 -> 31 ;
32 [label=<squared_error = 0.0<br/>samples = 2<br/>value = 8.007>, fillcolor="#efb388"] ;
31 -> 32 ;
33 [label=<Highest level of educational attainment &le; 7.0<br/>squared_error = 7.184<br/>samples = 21<br/>value = 1.248>, fillcolor="#fdf3ec"] ;
31 -> 33 ;
34 [label=<squared_error = 0.0<br/>samples = 7<br/>value = 0.0>, fillcolor="#ffffff"] ;
33 -> 34 ;
35 [label=<log1p(Total education loan borrowed) &le; 4.605<br/>squared_error = 9.608<br/>samples = 14<br/>value = 1.871>, fillcolor="#fbede3"] ;
33 -> 35 ;
36 [label=<log1p(Current checking account balance) &le; 0.347<br/>squared_error = 11.49<br/>samples = 10<br/>value = 2.62>, fillcolor="#fae6d8"] ;
35 -> 36 ;
37 [label=<squared_error = 12.212<br/>samples = 7<br/>value = 3.743>, fillcolor="#f8dcc7"] ;
36 -> 37 ;
38 [label=<squared_error = 0.0<br/>samples = 3<br/>value = 0.0>, fillcolor="#ffffff"] ;
36 -> 38 ;
39 [label=<squared_error = 0.0<br/>samples = 4<br/>value = 0.0>, fillcolor="#ffffff"] ;
35 -> 39 ;
40 [label=<log1p(Current checking account balance) &le; 0.347<br/>squared_error = 1.599<br/>samples = 44<br/>value = 0.342>, fillcolor="#fefcfa"] ;
30 -> 40 ;
41 [label=<squared_error = 0.0<br/>samples = 19<br/>value = 0.0>, fillcolor="#ffffff"] ;
40 -> 41 ;
42 [label=<log1p(Current checking account balance) &le; 1.546<br/>squared_error = 2.658<br/>samples = 25<br/>value = 0.602>, fillcolor="#fef9f6"] ;
40 -> 42 ;
43 [label=<Age of individual &le; 37.5<br/>squared_error = 5.594<br/>samples = 9<br/>value = 1.672>, fillcolor="#fcefe6"] ;
42 -> 43 ;
44 [label=<Highest level of educational attainment &le; 7.5<br/>squared_error = 6.293<br/>samples = 6<br/>value = 2.509>, fillcolor="#fae7da"] ;
43 -> 44 ;
45 [label=<squared_error = 0.0<br/>samples = 3<br/>value = 0.0>, fillcolor="#ffffff"] ;
44 -> 45 ;
46 [label=<squared_error = 0.0<br/>samples = 3<br/>value = 5.017>, fillcolor="#f5d0b4"] ;
44 -> 46 ;
47 [label=<squared_error = 0.0<br/>samples = 3<br/>value = 0.0>, fillcolor="#ffffff"] ;
43 -> 47 ;
48 [label=<squared_error = 0.0<br/>samples = 16<br/>value = 0.0>, fillcolor="#ffffff"] ;
42 -> 48 ;
49 [label=<log1p(Current checking account balance) &le; 5.049<br/>squared_error = 18.579<br/>samples = 9<br/>value = 3.855>, fillcolor="#f7dbc6"] ;
9 -> 49 ;
50 [label=<squared_error = 0.0<br/>samples = 4<br/>value = 8.674>, fillcolor="#eead7e"] ;
49 -> 50 ;
51 [label=<squared_error = 0.0<br/>samples = 5<br/>value = 0.0>, fillcolor="#ffffff"] ;
49 -> 51 ;
52 [label=<log1p(Current checking account balance) &le; 2.308<br/>squared_error = 26.863<br/>samples = 7<br/>value = 4.488>, fillcolor="#f6d5bc"] ;
8 -> 52 ;
53 [label=<squared_error = 0.02<br/>samples = 3<br/>value = 10.472>, fillcolor="#eb9c63"] ;
52 -> 53 ;
54 [label=<squared_error = 0.0<br/>samples = 4<br/>value = 0.0>, fillcolor="#ffffff"] ;
52 -> 54 ;
55 [label=<Age of individual &le; 44.5<br/>squared_error = 7.515<br/>samples = 787<br/>value = 1.351>, fillcolor="#fcf2eb"] ;
7 -> 55 ;
56 [label=<Highest level of educational attainment &le; 5.5<br/>squared_error = 11.233<br/>samples = 131<br/>value = 2.322>, fillcolor="#fae9dc"] ;
55 -> 56 ;
57 [label=<log1p(Current checking account balance) &le; 4.829<br/>squared_error = 2.04<br/>samples = 23<br/>value = 0.305>, fillcolor="#fefcfa"] ;
56 -> 57 ;
58 [label=<squared_error = 0.0<br/>samples = 20<br/>value = 0.0>, fillcolor="#ffffff"] ;
57 -> 58 ;
59 [label=<Highest level of educational attainment &le; 4.5<br/>squared_error = 10.901<br/>samples = 3<br/>value = 2.335>, fillcolor="#fae9dc"] ;
57 -> 59 ;
60 [label=<squared_error = 0.0<br/>samples = 1<br/>value = 7.004>, fillcolor="#f1bd97"] ;
59 -> 60 ;
61 [label=<squared_error = 0.0<br/>samples = 2<br/>value = 0.0>, fillcolor="#ffffff"] ;
59 -> 61 ;
62 [label=<log1p(Current checking account balance) &le; 2.721<br/>squared_error = 12.139<br/>samples = 108<br/>value = 2.752>, fillcolor="#fae5d6"] ;
56 -> 62 ;
63 [label=<Years in college &le; 3.0<br/>squared_error = 13.517<br/>samples = 54<br/>value = 3.775>, fillcolor="#f8dbc7"] ;
62 -> 63 ;
64 [label=<Age of individual &le; 40.5<br/>squared_error = 13.294<br/>samples = 49<br/>value = 4.16>, fillcolor="#f7d8c1"] ;
63 -> 64 ;
65 [label=<Age of individual &le; 39.5<br/>squared_error = 9.428<br/>samples = 12<br/>value = 1.773>, fillcolor="#fceee5"] ;
64 -> 65 ;
66 [label=<squared_error = 12.067<br/>samples = 5<br/>value = 4.255>, fillcolor="#f7d7c0"] ;
65 -> 66 ;
67 [label=<squared_error = 0.0<br/>samples = 7<br/>value = 0.0>, fillcolor="#ffffff"] ;
65 -> 67 ;
68 [label=<Years in college &le; 0.5<br/>squared_error = 12.1<br/>samples = 37<br/>value = 4.934>, fillcolor="#f5d0b6"] ;
64 -> 68 ;
69 [label=<Age of individual &le; 42.0<br/>squared_error = 13.392<br/>samples = 28<br/>value = 4.164>, fillcolor="#f7d8c1"] ;
68 -> 69 ;
70 [label=<squared_error = 0.0<br/>samples = 3<br/>value = 0.0>, fillcolor="#ffffff"] ;
69 -> 70 ;
71 [label=<log1p(Current checking account balance) &le; 1.199<br/>squared_error = 12.669<br/>samples = 25<br/>value = 4.663>, fillcolor="#f6d3ba"] ;
69 -> 71 ;
72 [label=<Age of individual &le; 43.5<br/>squared_error = 13.489<br/>samples = 21<br/>value = 4.158>, fillcolor="#f7d8c1"] ;
71 -> 72 ;
73 [label=<squared_error = 7.406<br/>samples = 5<br/>value = 5.443>, fillcolor="#f4ccae"] ;
72 -> 73 ;
74 [label=<Highest level of educational attainment &le; 7.0<br/>squared_error = 14.713<br/>samples = 16<br/>value = 3.757>, fillcolor="#f8dbc7"] ;
72 -> 74 ;
75 [label=<squared_error = 17.913<br/>samples = 9<br/>value = 3.786>, fillcolor="#f8dbc7"] ;
74 -> 75 ;
76 [label=<squared_error = 10.596<br/>samples = 7<br/>value = 3.72>, fillcolor="#f8dcc8"] ;
74 -> 76 ;
77 [label=<squared_error = -0.0<br/>samples = 4<br/>value = 7.314>, fillcolor="#f1ba92"] ;
71 -> 77 ;
78 [label=<Years in college &le; 1.5<br/>squared_error = 0.493<br/>samples = 9<br/>value = 7.331>, fillcolor="#f1ba92"] ;
68 -> 78 ;
79 [label=<squared_error = 0.124<br/>samples = 5<br/>value = 7.91>, fillcolor="#f0b489"] ;
78 -> 79 ;
80 [label=<squared_error = 0.01<br/>samples = 4<br/>value = 6.606>, fillcolor="#f2c19d"] ;
78 -> 80 ;
81 [label=<squared_error = 0.0<br/>samples = 5<br/>value = 0.0>, fillcolor="#ffffff"] ;
63 -> 81 ;
82 [label=<log1p(Total education loan borrowed)^2 &le; 89.531<br/>squared_error = 8.67<br/>samples = 54<br/>value = 1.73>, fillcolor="#fcefe5"] ;
62 -> 82 ;
83 [label=<Age of individual &le; 42.5<br/>squared_error = 6.856<br/>samples = 51<br/>value = 1.37>, fillcolor="#fcf2eb"] ;
82 -> 83 ;
84 [label=<Age of individual &le; 40.5<br/>squared_error = 9.655<br/>samples = 29<br/>value = 2.274>, fillcolor="#fbe9dd"] ;
83 -> 84 ;
85 [label=<Years in college &le; 1.5<br/>squared_error = 2.492<br/>samples = 14<br/>value = 0.644>, fillcolor="#fef9f5"] ;
84 -> 85 ;
86 [label=<squared_error = 0.0<br/>samples = 12<br/>value = 0.0>, fillcolor="#ffffff"] ;
85 -> 86 ;
87 [label=<squared_error = 0.0<br/>samples = 2<br/>value = 4.511>, fillcolor="#f6d4bc"] ;
85 -> 87 ;
88 [label=<Years in college &le; 1.0<br/>squared_error = 11.547<br/>samples = 15<br/>value = 3.795>, fillcolor="#f8dbc7"] ;
84 -> 88 ;
89 [label=<Age of individual &le; 41.5<br/>squared_error = 10.767<br/>samples = 13<br/>value = 4.379>, fillcolor="#f6d6be"] ;
88 -> 89 ;
90 [label=<squared_error = 0.0<br/>samples = 3<br/>value = 5.707>, fillcolor="#f4c9aa"] ;
89 -> 90 ;
91 [label=<log1p(Current checking account balance) &le; 3.719<br/>squared_error = 13.309<br/>samples = 10<br/>value = 3.981>, fillcolor="#f7d9c4"] ;
89 -> 91 ;
92 [label=<squared_error = 0.0<br/>samples = 4<br/>value = 3.045>, fillcolor="#f9e2d2"] ;
91 -> 92 ;
93 [label=<log1p(Current checking account balance) &le; 4.505<br/>squared_error = 21.208<br/>samples = 6<br/>value = 4.605>, fillcolor="#f6d3bb"] ;
91 -> 93 ;
94 [label=<squared_error = 0.0<br/>samples = 1<br/>value = 9.21>, fillcolor="#eda876"] ;
93 -> 94 ;
95 [label=<squared_error = 20.36<br/>samples = 5<br/>value = 3.684>, fillcolor="#f8dcc8"] ;
93 -> 95 ;
96 [label=<squared_error = -0.0<br/>samples = 2<br/>value = 0.0>, fillcolor="#ffffff"] ;
88 -> 96 ;
97 [label=<log1p(Current checking account balance) &le; 4.907<br/>squared_error = 0.671<br/>samples = 22<br/>value = 0.179>, fillcolor="#fffdfc"] ;
83 -> 97 ;
98 [label=<squared_error = 0.0<br/>samples = 21<br/>value = 0.0>, fillcolor="#ffffff"] ;
97 -> 98 ;
99 [label=<squared_error = 0.0<br/>samples = 1<br/>value = 3.932>, fillcolor="#f7dac5"] ;
97 -> 99 ;
100 [label=<squared_error = 0.0<br/>samples = 3<br/>value = 7.838>, fillcolor="#f0b58a"] ;
82 -> 100 ;
101 [label=<log1p(Current checking account balance) &le; 0.347<br/>squared_error = 6.546<br/>samples = 656<br/>value = 1.157>, fillcolor="#fdf4ee"] ;
55 -> 101 ;
102 [label=<Years in college &le; 0.5<br/>squared_error = 9.004<br/>samples = 316<br/>value = 1.555>, fillcolor="#fcf0e8"] ;
101 -> 102 ;
103 [label=<Age of individual &le; 50.5<br/>squared_error = 9.849<br/>samples = 274<br/>value = 1.729>, fillcolor="#fcefe5"] ;
102 -> 103 ;
104 [label=<Highest level of educational attainment &le; 7.0<br/>squared_error = 3.655<br/>samples = 46<br/>value = 0.653>, fillcolor="#fef9f5"] ;
103 -> 104 ;
105 [label=<squared_error = -0.0<br/>samples = 25<br/>value = 0.0>, fillcolor="#ffffff"] ;
104 -> 105 ;
106 [label=<Age of individual &le; 46.5<br/>squared_error = 6.896<br/>samples = 21<br/>value = 1.43>, fillcolor="#fcf1ea"] ;
104 -> 106 ;
107 [label=<squared_error = 0.0<br/>samples = 7<br/>value = 0.0>, fillcolor="#ffffff"] ;
106 -> 107 ;
108 [label=<Age of individual &le; 48.0<br/>squared_error = 8.81<br/>samples = 14<br/>value = 2.145>, fillcolor="#fbebdf"] ;
106 -> 108 ;
109 [label=<squared_error = 9.73<br/>samples = 9<br/>value = 3.336>, fillcolor="#f8dfcd"] ;
108 -> 109 ;
110 [label=<squared_error = 0.0<br/>samples = 5<br/>value = 0.0>, fillcolor="#ffffff"] ;
108 -> 110 ;
111 [label=<Age of individual &le; 51.5<br/>squared_error = 10.817<br/>samples = 228<br/>value = 1.946>, fillcolor="#fbede2"] ;
103 -> 111 ;
112 [label=<squared_error = 2.984<br/>samples = 3<br/>value = 7.315>, fillcolor="#f1ba92"] ;
111 -> 112 ;
113 [label=<Age of individual &le; 66.5<br/>squared_error = 10.532<br/>samples = 225<br/>value = 1.874>, fillcolor="#fbede3"] ;
111 -> 113 ;
114 [label=<Age of individual &le; 60.5<br/>squared_error = 12.224<br/>samples = 151<br/>value = 2.227>, fillcolor="#fbeade"] ;
113 -> 114 ;
115 [label=<Age of individual &le; 57.5<br/>squared_error = 7.951<br/>samples = 82<br/>value = 1.552>, fillcolor="#fcf0e8"] ;
114 -> 115 ;
116 [label=<Highest level of educational attainment &le; 5.5<br/>squared_error = 11.254<br/>samples = 39<br/>value = 2.557>, fillcolor="#fae7d9"] ;
115 -> 116 ;
117 [label=<Highest level of educational attainment &le; 4.5<br/>squared_error = 4.537<br/>samples = 13<br/>value = 1.42>, fillcolor="#fcf2ea"] ;
116 -> 117 ;
118 [label=<Highest level of educational attainment &le; 3.5<br/>squared_error = 4.733<br/>samples = 6<br/>value = 3.077>, fillcolor="#f9e2d1"] ;
117 -> 118 ;
119 [label=<squared_error = 0.0<br/>samples = 2<br/>value = 0.0>, fillcolor="#ffffff"] ;
118 -> 119 ;
120 [label=<squared_error = 0.0<br/>samples = 4<br/>value = 4.615>, fillcolor="#f6d3ba"] ;
118 -> 120 ;
121 [label=<squared_error = 0.0<br/>samples = 7<br/>value = 0.0>, fillcolor="#ffffff"] ;
117 -> 121 ;
122 [label=<Highest level of educational attainment &le; 6.5<br/>squared_error = 13.642<br/>samples = 26<br/>value = 3.126>, fillcolor="#f9e1d1"] ;
116 -> 122 ;
123 [label=<squared_error = 0.0<br/>samples = 4<br/>value = 8.007>, fillcolor="#efb388"] ;
122 -> 123 ;
124 [label=<Highest level of educational attainment &le; 7.5<br/>squared_error = 11.004<br/>samples = 22<br/>value = 2.239>, fillcolor="#fbeade"] ;
122 -> 124 ;
125 [label=<squared_error = 0.0<br/>samples = 7<br/>value = 0.0>, fillcolor="#ffffff"] ;
124 -> 125 ;
126 [label=<Age of individual &le; 56.0<br/>squared_error = 12.709<br/>samples = 15<br/>value = 3.284>, fillcolor="#f9e0ce"] ;
124 -> 126 ;
127 [label=<squared_error = 13.605<br/>samples = 12<br/>value = 2.608>, fillcolor="#fae6d8"] ;
126 -> 127 ;
128 [label=<squared_error = 0.0<br/>samples = 3<br/>value = 5.986>, fillcolor="#f3c6a6"] ;
126 -> 128 ;
129 [label=<Highest level of educational attainment &le; 4.5<br/>squared_error = 3.207<br/>samples = 43<br/>value = 0.641>, fillcolor="#fef9f5"] ;
115 -> 129 ;
130 [label=<Highest level of educational attainment &le; 2.5<br/>squared_error = 6.758<br/>samples = 16<br/>value = 1.722>, fillcolor="#fcefe5"] ;
129 -> 130 ;
131 [label=<squared_error = 0.0<br/>samples = 8<br/>value = 0.0>, fillcolor="#ffffff"] ;
130 -> 131 ;
132 [label=<Age of individual &le; 59.5<br/>squared_error = 7.587<br/>samples = 8<br/>value = 3.443>, fillcolor="#f8decc"] ;
130 -> 132 ;
133 [label=<squared_error = 0.757<br/>samples = 5<br/>value = 5.51>, fillcolor="#f4cbad"] ;
132 -> 133 ;
134 [label=<squared_error = 0.0<br/>samples = 3<br/>value = 0.0>, fillcolor="#ffffff"] ;
132 -> 134 ;
135 [label=<squared_error = -0.0<br/>samples = 27<br/>value = 0.0>, fillcolor="#ffffff"] ;
129 -> 135 ;
136 [label=<Highest level of educational attainment &le; 7.5<br/>squared_error = 16.118<br/>samples = 69<br/>value = 3.029>, fillcolor="#f9e2d2"] ;
114 -> 136 ;
137 [label=<Age of individual &le; 62.5<br/>squared_error = 12.56<br/>samples = 41<br/>value = 2.075>, fillcolor="#fbebe0"] ;
136 -> 137 ;
138 [label=<squared_error = 0.0<br/>samples = 13<br/>value = 0.0>, fillcolor="#ffffff"] ;
137 -> 138 ;
139 [label=<Highest level of educational attainment &le; 4.5<br/>squared_error = 15.463<br/>samples = 28<br/>value = 3.039>, fillcolor="#f9e2d2"] ;
137 -> 139 ;
140 [label=<Highest level of educational attainment &le; 2.0<br/>squared_error = 16.677<br/>samples = 20<br/>value = 3.874>, fillcolor="#f7dac5"] ;
139 -> 140 ;
141 [label=<Age of individual &le; 64.5<br/>squared_error = 8.076<br/>samples = 10<br/>value = 1.417>, fillcolor="#fcf2ea"] ;
140 -> 141 ;
142 [label=<squared_error = 0.0<br/>samples = 8<br/>value = 0.0>, fillcolor="#ffffff"] ;
141 -> 142 ;
143 [label=<squared_error = 0.216<br/>samples = 2<br/>value = 7.086>, fillcolor="#f1bc96"] ;
141 -> 143 ;
144 [label=<Age of individual &le; 63.5<br/>squared_error = 13.202<br/>samples = 10<br/>value = 6.332>, fillcolor="#f3c3a1"] ;
140 -> 144 ;
145 [label=<squared_error = 0.0<br/>samples = 3<br/>value = 10.374>, fillcolor="#eb9d65"] ;
144 -> 145 ;
146 [label=<Highest level of educational attainment &le; 3.5<br/>squared_error = 8.857<br/>samples = 7<br/>value = 4.599>, fillcolor="#f6d3bb"] ;
144 -> 146 ;
147 [label=<squared_error = 0.0<br/>samples = 1<br/>value = 0.0>, fillcolor="#ffffff"] ;
146 -> 147 ;
148 [label=<squared_error = 6.22<br/>samples = 6<br/>value = 5.366>, fillcolor="#f5ccaf"] ;
146 -> 148 ;
149 [label=<Highest level of educational attainment &le; 5.5<br/>squared_error = 6.32<br/>samples = 8<br/>value = 0.95>, fillcolor="#fdf6f1"] ;
139 -> 149 ;
150 [label=<squared_error = 0.0<br/>samples = 7<br/>value = 0.0>, fillcolor="#ffffff"] ;
149 -> 150 ;
151 [label=<squared_error = 0.0<br/>samples = 1<br/>value = 7.601>, fillcolor="#f0b78e"] ;
149 -> 151 ;
152 [label=<Age of individual &le; 62.5<br/>squared_error = 18.044<br/>samples = 28<br/>value = 4.427>, fillcolor="#f6d5bd"] ;
136 -> 152 ;
153 [label=<Age of individual &le; 61.5<br/>squared_error = 2.387<br/>samples = 9<br/>value = 8.695>, fillcolor="#eead7e"] ;
152 -> 153 ;
154 [label=<squared_error = 0.06<br/>samples = 5<br/>value = 9.585>, fillcolor="#eca471"] ;
153 -> 154 ;
155 [label=<squared_error = 3.065<br/>samples = 4<br/>value = 7.582>, fillcolor="#f0b78e"] ;
153 -> 155 ;
156 [label=<Age of individual &le; 65.5<br/>squared_error = 12.742<br/>samples = 19<br/>value = 2.405>, fillcolor="#fae8db"] ;
152 -> 156 ;
157 [label=<Age of individual &le; 63.5<br/>squared_error = 10.309<br/>samples = 16<br/>value = 1.54>, fillcolor="#fcf0e8"] ;
156 -> 157 ;
158 [label=<squared_error = 16.953<br/>samples = 6<br/>value = 4.106>, fillcolor="#f7d8c2"] ;
157 -> 158 ;
159 [label=<squared_error = 0.0<br/>samples = 10<br/>value = 0.0>, fillcolor="#ffffff"] ;
157 -> 159 ;
160 [label=<squared_error = 0.45<br/>samples = 3<br/>value = 7.018>, fillcolor="#f1bd97"] ;
156 -> 160 ;
161 [label=<Age of individual &le; 71.5<br/>squared_error = 6.307<br/>samples = 74<br/>value = 1.154>, fillcolor="#fdf4ee"] ;
113 -> 161 ;
162 [label=<squared_error = -0.0<br/>samples = 40<br/>value = 0.0>, fillcolor="#ffffff"] ;
161 -> 162 ;
163 [label=<Age of individual &le; 80.5<br/>squared_error = 10.316<br/>samples = 34<br/>value = 2.512>, fillcolor="#fae7da"] ;
161 -> 163 ;
164 [label=<Highest level of educational attainment &le; 5.5<br/>squared_error = 10.378<br/>samples = 21<br/>value = 4.067>, fillcolor="#f7d9c3"] ;
163 -> 164 ;
165 [label=<Age of individual &le; 76.5<br/>squared_error = 8.419<br/>samples = 16<br/>value = 4.949>, fillcolor="#f5d0b5"] ;
164 -> 165 ;
166 [label=<Highest level of educational attainment &le; 1.5<br/>squared_error = 12.272<br/>samples = 8<br/>value = 3.448>, fillcolor="#f8decc"] ;
165 -> 166 ;
167 [label=<squared_error = 0.773<br/>samples = 4<br/>value = 6.895>, fillcolor="#f2be99"] ;
166 -> 167 ;
168 [label=<squared_error = 0.0<br/>samples = 4<br/>value = 0.0>, fillcolor="#ffffff"] ;
166 -> 168 ;
169 [label=<Age of individual &le; 79.5<br/>squared_error = 0.055<br/>samples = 8<br/>value = 6.451>, fillcolor="#f2c29f"] ;
165 -> 169 ;
170 [label=<squared_error = 0.0<br/>samples = 4<br/>value = 6.217>, fillcolor="#f3c4a3"] ;
169 -> 170 ;
171 [label=<squared_error = -0.0<br/>samples = 4<br/>value = 6.686>, fillcolor="#f2c09c"] ;
169 -> 171 ;
172 [label=<Age of individual &le; 74.0<br/>squared_error = 6.183<br/>samples = 5<br/>value = 1.243>, fillcolor="#fdf3ed"] ;
164 -> 172 ;
173 [label=<squared_error = 0.0<br/>samples = 1<br/>value = 6.217>, fillcolor="#f3c4a3"] ;
172 -> 173 ;
174 [label=<squared_error = 0.0<br/>samples = 4<br/>value = 0.0>, fillcolor="#ffffff"] ;
172 -> 174 ;
175 [label=<squared_error = -0.0<br/>samples = 13<br/>value = 0.0>, fillcolor="#ffffff"] ;
163 -> 175 ;
176 [label=<Years in college &le; 3.5<br/>squared_error = 2.001<br/>samples = 42<br/>value = 0.418>, fillcolor="#fefbf9"] ;
102 -> 176 ;
177 [label=<squared_error = -0.0<br/>samples = 30<br/>value = 0.0>, fillcolor="#ffffff"] ;
176 -> 177 ;
178 [label=<Age of individual &le; 51.5<br/>squared_error = 5.473<br/>samples = 12<br/>value = 1.464>, fillcolor="#fcf1e9"] ;
176 -> 178 ;
179 [label=<squared_error = 0.0<br/>samples = 6<br/>value = 0.0>, fillcolor="#ffffff"] ;
178 -> 179 ;
180 [label=<Age of individual &le; 59.5<br/>squared_error = 6.662<br/>samples = 6<br/>value = 2.927>, fillcolor="#f9e3d3"] ;
178 -> 180 ;
181 [label=<squared_error = 0.034<br/>samples = 3<br/>value = 3.304>, fillcolor="#f9e0ce"] ;
180 -> 181 ;
182 [label=<squared_error = 13.006<br/>samples = 3<br/>value = 2.55>, fillcolor="#fae7d9"] ;
180 -> 182 ;
183 [label=<Years in college &le; 3.5<br/>squared_error = 3.979<br/>samples = 340<br/>value = 0.788>, fillcolor="#fdf8f3"] ;
101 -> 183 ;
184 [label=<Age of individual &le; 68.5<br/>squared_error = 3.523<br/>samples = 337<br/>value = 0.723>, fillcolor="#fef8f4"] ;
183 -> 184 ;
185 [label=<Years in college &le; 0.5<br/>squared_error = 1.816<br/>samples = 249<br/>value = 0.538>, fillcolor="#fefaf7"] ;
184 -> 185 ;
186 [label=<log1p(Current checking account balance) &le; 4.662<br/>squared_error = 1.46<br/>samples = 217<br/>value = 0.413>, fillcolor="#fefbf9"] ;
185 -> 186 ;
187 [label=<log1p(Total education loan borrowed) &le; 9.158<br/>squared_error = 0.953<br/>samples = 189<br/>value = 0.318>, fillcolor="#fefcfa"] ;
186 -> 187 ;
188 [label=<Age of individual &le; 57.5<br/>squared_error = 0.694<br/>samples = 172<br/>value = 0.23>, fillcolor="#fffdfc"] ;
187 -> 188 ;
189 [label=<squared_error = 0.0<br/>samples = 54<br/>value = 0.0>, fillcolor="#ffffff"] ;
188 -> 189 ;
190 [label=<Age of individual &le; 61.5<br/>squared_error = 0.976<br/>samples = 118<br/>value = 0.335>, fillcolor="#fefcfa"] ;
188 -> 190 ;
191 [label=<log1p(Current checking account balance) &le; 4.021<br/>squared_error = 2.555<br/>samples = 29<br/>value = 0.87>, fillcolor="#fdf7f2"] ;
190 -> 191 ;
192 [label=<log1p(Current checking account balance) &le; 3.823<br/>squared_error = 3.372<br/>samples = 18<br/>value = 1.401>, fillcolor="#fcf2ea"] ;
191 -> 192 ;
193 [label=<Age of individual &le; 59.0<br/>squared_error = 0.09<br/>samples = 12<br/>value = 0.173>, fillcolor="#fffdfc"] ;
192 -> 193 ;
194 [label=<squared_error = -0.0<br/>samples = 3<br/>value = 0.693>, fillcolor="#fef8f5"] ;
193 -> 194 ;
195 [label=<squared_error = 0.0<br/>samples = 9<br/>value = 0.0>, fillcolor="#ffffff"] ;
193 -> 195 ;
196 [label=<Age of individual &le; 60.5<br/>squared_error = 0.892<br/>samples = 6<br/>value = 3.856>, fillcolor="#f7dbc6"] ;
192 -> 196 ;
197 [label=<squared_error = 0.0<br/>samples = 1<br/>value = 5.969>, fillcolor="#f3c7a6"] ;
196 -> 197 ;
198 [label=<squared_error = 0.0<br/>samples = 5<br/>value = 3.434>, fillcolor="#f8dfcc"] ;
196 -> 198 ;
199 [label=<squared_error = 0.0<br/>samples = 11<br/>value = 0.0>, fillcolor="#ffffff"] ;
191 -> 199 ;
200 [label=<Highest level of educational attainment &le; 7.5<br/>squared_error = 0.338<br/>samples = 89<br/>value = 0.161>, fillcolor="#fffdfd"] ;
190 -> 200 ;
201 [label=<Highest level of educational attainment &le; 6.5<br/>squared_error = 0.726<br/>samples = 37<br/>value = 0.388>, fillcolor="#fefbf9"] ;
200 -> 201 ;
202 [label=<squared_error = 0.0<br/>samples = 28<br/>value = 0.0>, fillcolor="#ffffff"] ;
201 -> 202 ;
203 [label=<Age of individual &le; 66.5<br/>squared_error = 1.062<br/>samples = 9<br/>value = 1.595>, fillcolor="#fcf0e7"] ;
201 -> 203 ;
204 [label=<squared_error = 0.105<br/>samples = 4<br/>value = 2.721>, fillcolor="#fae5d7"] ;
203 -> 204 ;
205 [label=<squared_error = -0.0<br/>samples = 5<br/>value = 0.693>, fillcolor="#fef8f5"] ;
203 -> 205 ;
206 [label=<squared_error = 0.0<br/>samples = 52<br/>value = 0.0>, fillcolor="#ffffff"] ;
200 -> 206 ;
207 [label=<log1p(Current checking account balance) &le; 3.823<br/>squared_error = 2.693<br/>samples = 17<br/>value = 1.212>, fillcolor="#fdf4ed"] ;
187 -> 207 ;
208 [label=<log1p(Current checking account balance) &le; 3.239<br/>squared_error = 0.0<br/>samples = 6<br/>value = 3.434>, fillcolor="#f8dfcc"] ;
207 -> 208 ;
209 [label=<squared_error = 0.0<br/>samples = 1<br/>value = 3.434>, fillcolor="#f8dfcc"] ;
208 -> 209 ;
210 [label=<squared_error = -0.0<br/>samples = 5<br/>value = 3.434>, fillcolor="#f8dfcc"] ;
208 -> 210 ;
211 [label=<squared_error = 0.0<br/>samples = 11<br/>value = 0.0>, fillcolor="#ffffff"] ;
207 -> 211 ;
212 [label=<Age of individual &le; 64.5<br/>squared_error = 4.421<br/>samples = 28<br/>value = 1.05>, fillcolor="#fdf5ef"] ;
186 -> 212 ;
213 [label=<log1p(Current checking account balance) &le; 4.946<br/>squared_error = 2.784<br/>samples = 26<br/>value = 0.678>, fillcolor="#fef9f5"] ;
212 -> 213 ;
214 [label=<Age of individual &le; 50.0<br/>squared_error = 5.972<br/>samples = 6<br/>value = 2.206>, fillcolor="#fbeade"] ;
213 -> 214 ;
215 [label=<squared_error = 0.0<br/>samples = 1<br/>value = 6.479>, fillcolor="#f2c29f"] ;
214 -> 215 ;
216 [label=<Age of individual &le; 57.5<br/>squared_error = 2.785<br/>samples = 5<br/>value = 1.352>, fillcolor="#fcf2eb"] ;
214 -> 216 ;
217 [label=<squared_error = 0.0<br/>samples = 2<br/>value = 0.0>, fillcolor="#ffffff"] ;
216 -> 217 ;
218 [label=<Age of individual &le; 61.0<br/>squared_error = 2.612<br/>samples = 3<br/>value = 2.253>, fillcolor="#fbeade"] ;
216 -> 218 ;
219 [label=<log1p(Current checking account balance) &le; 4.835<br/>squared_error = 0.112<br/>samples = 2<br/>value = 3.379>, fillcolor="#f8dfcd"] ;
218 -> 219 ;
220 [label=<squared_error = 0.0<br/>samples = 1<br/>value = 3.045>, fillcolor="#f9e2d2"] ;
219 -> 220 ;
221 [label=<squared_error = -0.0<br/>samples = 1<br/>value = 3.714>, fillcolor="#f8dcc8"] ;
219 -> 221 ;
222 [label=<squared_error = 0.0<br/>samples = 1<br/>value = 0.0>, fillcolor="#ffffff"] ;
218 -> 222 ;
223 [label=<log1p(Current checking account balance) &le; 5.049<br/>squared_error = 0.917<br/>samples = 20<br/>value = 0.22>, fillcolor="#fffdfc"] ;
213 -> 223 ;
224 [label=<squared_error = 0.0<br/>samples = 15<br/>value = 0.0>, fillcolor="#ffffff"] ;
223 -> 224 ;
225 [label=<Highest level of educational attainment &le; 5.5<br/>squared_error = 3.09<br/>samples = 5<br/>value = 0.879>, fillcolor="#fdf7f2"] ;
223 -> 225 ;
226 [label=<squared_error = 0.0<br/>samples = 1<br/>value = 4.394>, fillcolor="#f6d5be"] ;
225 -> 226 ;
227 [label=<squared_error = 0.0<br/>samples = 4<br/>value = 0.0>, fillcolor="#ffffff"] ;
225 -> 227 ;
228 [label=<squared_error = 0.478<br/>samples = 2<br/>value = 5.89>, fillcolor="#f4c7a7"] ;
212 -> 228 ;
229 [label=<Age of individual &le; 62.5<br/>squared_error = 3.395<br/>samples = 32<br/>value = 1.39>, fillcolor="#fcf2ea"] ;
185 -> 229 ;
230 [label=<Years in college &le; 1.5<br/>squared_error = 2.868<br/>samples = 28<br/>value = 1.034>, fillcolor="#fdf5f0"] ;
229 -> 230 ;
231 [label=<log1p(Current checking account balance) &le; 4.212<br/>squared_error = 8.27<br/>samples = 3<br/>value = 4.067>, fillcolor="#f7d9c3"] ;
230 -> 231 ;
232 [label=<squared_error = 0.0<br/>samples = 1<br/>value = 0.0>, fillcolor="#ffffff"] ;
231 -> 232 ;
233 [label=<log1p(Current checking account balance) &le; 4.753<br/>squared_error = 0.0<br/>samples = 2<br/>value = 6.1>, fillcolor="#f3c5a4"] ;
231 -> 233 ;
234 [label=<squared_error = 0.0<br/>samples = 1<br/>value = 6.111>, fillcolor="#f3c5a4"] ;
233 -> 234 ;
235 [label=<squared_error = 0.0<br/>samples = 1<br/>value = 6.089>, fillcolor="#f3c5a4"] ;
233 -> 235 ;
236 [label=<log1p(Current checking account balance) &le; 1.546<br/>squared_error = 0.984<br/>samples = 25<br/>value = 0.67>, fillcolor="#fef9f5"] ;
230 -> 236 ;
237 [label=<squared_error = 0.088<br/>samples = 5<br/>value = 2.034>, fillcolor="#fbece1"] ;
236 -> 237 ;
238 [label=<log1p(Current checking account balance) &le; 4.439<br/>squared_error = 0.627<br/>samples = 20<br/>value = 0.329>, fillcolor="#fefcfa"] ;
236 -> 238 ;
239 [label=<log1p(Current checking account balance) &le; 4.187<br/>squared_error = 1.037<br/>samples = 10<br/>value = 0.659>, fillcolor="#fef9f5"] ;
238 -> 239 ;
240 [label=<squared_error = 0.0<br/>samples = 7<br/>value = 0.0>, fillcolor="#ffffff"] ;
239 -> 240 ;
241 [label=<squared_error = 0.082<br/>samples = 3<br/>value = 2.196>, fillcolor="#fbeade"] ;
239 -> 241 ;
242 [label=<squared_error = 0.0<br/>samples = 10<br/>value = 0.0>, fillcolor="#ffffff"] ;
238 -> 242 ;
243 [label=<squared_error = 0.009<br/>samples = 4<br/>value = 3.877>, fillcolor="#f7dac5"] ;
229 -> 243 ;
244 [label=<Age of individual &le; 69.5<br/>squared_error = 7.984<br/>samples = 88<br/>value = 1.245>, fillcolor="#fdf3ec"] ;
184 -> 244 ;
245 [label=<log1p(Current checking account balance) &le; 4.563<br/>squared_error = 15.617<br/>samples = 17<br/>value = 5.359>, fillcolor="#f5ccaf"] ;
244 -> 245 ;
246 [label=<Years in college &le; 1.0<br/>squared_error = 3.825<br/>samples = 8<br/>value = 8.737>, fillcolor="#eeac7d"] ;
245 -> 246 ;
247 [label=<log1p(Current checking account balance) &le; 4.453<br/>squared_error = 0.486<br/>samples = 4<br/>value = 10.63>, fillcolor="#ea9a61"] ;
246 -> 247 ;
248 [label=<squared_error = 0.0<br/>samples = 2<br/>value = 11.324>, fillcolor="#e99457"] ;
247 -> 248 ;
249 [label=<squared_error = 0.009<br/>samples = 2<br/>value = 9.936>, fillcolor="#eca16b"] ;
247 -> 249 ;
250 [label=<squared_error = 0.0<br/>samples = 4<br/>value = 6.844>, fillcolor="#f2be99"] ;
246 -> 250 ;
251 [label=<squared_error = 6.944<br/>samples = 9<br/>value = 2.357>, fillcolor="#fae9dc"] ;
245 -> 251 ;
252 [label=<Age of individual &le; 82.5<br/>squared_error = 1.132<br/>samples = 71<br/>value = 0.26>, fillcolor="#fefdfb"] ;
244 -> 252 ;
253 [label=<squared_error = -0.0<br/>samples = 58<br/>value = 0.0>, fillcolor="#ffffff"] ;
252 -> 253 ;
254 [label=<log1p(Current checking account balance) &le; 4.662<br/>squared_error = 4.537<br/>samples = 13<br/>value = 1.42>, fillcolor="#fcf2ea"] ;
252 -> 254 ;
255 [label=<log1p(Current checking account balance) &le; 4.439<br/>squared_error = 5.216<br/>samples = 7<br/>value = 2.637>, fillcolor="#fae6d8"] ;
254 -> 255 ;
256 [label=<squared_error = 0.0<br/>samples = 3<br/>value = 0.0>, fillcolor="#ffffff"] ;
255 -> 256 ;
257 [label=<squared_error = 0.0<br/>samples = 4<br/>value = 4.615>, fillcolor="#f6d3ba"] ;
255 -> 257 ;
258 [label=<squared_error = 0.0<br/>samples = 6<br/>value = 0.0>, fillcolor="#ffffff"] ;
254 -> 258 ;
259 [label=<log1p(Current checking account balance) &le; 4.397<br/>squared_error = 1.822<br/>samples = 3<br/>value = 8.063>, fillcolor="#efb387"] ;
183 -> 259 ;
260 [label=<squared_error = 0.0<br/>samples = 1<br/>value = 9.048>, fillcolor="#eda979"] ;
259 -> 260 ;
261 [label=<log1p(Current checking account balance) &le; 5.167<br/>squared_error = 2.006<br/>samples = 2<br/>value = 7.571>, fillcolor="#f0b78e"] ;
259 -> 261 ;
262 [label=<squared_error = 0.0<br/>samples = 1<br/>value = 6.155>, fillcolor="#f3c5a4"] ;
261 -> 262 ;
263 [label=<squared_error = 0.0<br/>samples = 1<br/>value = 8.987>, fillcolor="#edaa79"] ;
261 -> 263 ;
264 [label=<log1p(Current checking account balance) &le; 4.187<br/>squared_error = 3.651<br/>samples = 561<br/>value = 0.694>, fillcolor="#fef8f5"] ;
6 -> 264 ;
265 [label=<log1p(Total education loan borrowed)^2 &le; 74.679<br/>squared_error = 2.076<br/>samples = 399<br/>value = 0.405>, fillcolor="#fefbf9"] ;
264 -> 265 ;
266 [label=<log1p(Current checking account balance) &le; 3.239<br/>squared_error = 1.29<br/>samples = 356<br/>value = 0.287>, fillcolor="#fefcfb"] ;
265 -> 266 ;
267 [label=<Typical year income &le; 0.029<br/>squared_error = 0.665<br/>samples = 286<br/>value = 0.18>, fillcolor="#fffdfc"] ;
266 -> 267 ;
268 [label=<Age of individual &le; 41.5<br/>squared_error = 1.148<br/>samples = 159<br/>value = 0.303>, fillcolor="#fefcfa"] ;
267 -> 268 ;
269 [label=<log1p(Current checking account balance) &le; 2.721<br/>squared_error = 0.013<br/>samples = 70<br/>value = 0.02>, fillcolor="#ffffff"] ;
268 -> 269 ;
270 [label=<squared_error = 0.0<br/>samples = 68<br/>value = 0.0>, fillcolor="#ffffff"] ;
269 -> 270 ;
271 [label=<squared_error = 0.0<br/>samples = 2<br/>value = 0.693>, fillcolor="#fef8f5"] ;
269 -> 271 ;
272 [label=<Age of individual &le; 49.5<br/>squared_error = 1.928<br/>samples = 89<br/>value = 0.525>, fillcolor="#fefaf7"] ;
268 -> 272 ;
273 [label=<Typical year income &le; 0.021<br/>squared_error = 3.906<br/>samples = 34<br/>value = 1.164>, fillcolor="#fdf4ee"] ;
272 -> 273 ;
274 [label=<Age of individual &le; 46.5<br/>squared_error = 0.826<br/>samples = 23<br/>value = 0.417>, fillcolor="#fefbf9"] ;
273 -> 274 ;
275 [label=<squared_error = 0.0<br/>samples = 14<br/>value = 0.0>, fillcolor="#ffffff"] ;
274 -> 275 ;
276 [label=<Highest level of educational attainment &le; 6.0<br/>squared_error = 1.42<br/>samples = 9<br/>value = 1.066>, fillcolor="#fdf5ef"] ;
274 -> 276 ;
277 [label=<squared_error = 0.0<br/>samples = 5<br/>value = 0.0>, fillcolor="#ffffff"] ;
276 -> 277 ;
278 [label=<squared_error = 0.0<br/>samples = 4<br/>value = 2.398>, fillcolor="#fae8db"] ;
276 -> 278 ;
279 [label=<Highest level of educational attainment &le; 6.0<br/>squared_error = 6.744<br/>samples = 11<br/>value = 2.725>, fillcolor="#fae5d6"] ;
273 -> 279 ;
280 [label=<Typical year income &le; 0.024<br/>squared_error = 2.612<br/>samples = 7<br/>value = 1.021>, fillcolor="#fdf5f0"] ;
279 -> 280 ;
281 [label=<squared_error = 0.0<br/>samples = 5<br/>value = 0.0>, fillcolor="#ffffff"] ;
280 -> 281 ;
282 [label=<Typical year income &le; 0.026<br/>squared_error = 0.02<br/>samples = 2<br/>value = 3.574>, fillcolor="#f8ddca"] ;
280 -> 282 ;
283 [label=<squared_error = 0.0<br/>samples = 1<br/>value = 3.714>, fillcolor="#f8dcc8"] ;
282 -> 283 ;
284 [label=<squared_error = -0.0<br/>samples = 1<br/>value = 3.434>, fillcolor="#f8dfcc"] ;
282 -> 284 ;
285 [label=<squared_error = -0.0<br/>samples = 4<br/>value = 5.707>, fillcolor="#f4c9aa"] ;
279 -> 285 ;
286 [label=<Typical year income &le; 0.024<br/>squared_error = 0.297<br/>samples = 55<br/>value = 0.131>, fillcolor="#fffefd"] ;
272 -> 286 ;
287 [label=<squared_error = 0.0<br/>samples = 40<br/>value = 0.0>, fillcolor="#ffffff"] ;
286 -> 287 ;
288 [label=<log1p(Current checking account balance) &le; 1.242<br/>squared_error = 0.92<br/>samples = 15<br/>value = 0.48>, fillcolor="#fefaf8"] ;
286 -> 288 ;
289 [label=<squared_error = 0.0<br/>samples = 9<br/>value = 0.0>, fillcolor="#ffffff"] ;
288 -> 289 ;
290 [label=<Age of individual &le; 58.0<br/>squared_error = 1.437<br/>samples = 6<br/>value = 1.199>, fillcolor="#fdf4ed"] ;
288 -> 290 ;
291 [label=<squared_error = 0.0<br/>samples = 3<br/>value = 0.0>, fillcolor="#ffffff"] ;
290 -> 291 ;
292 [label=<squared_error = 0.0<br/>samples = 3<br/>value = 2.398>, fillcolor="#fae8db"] ;
290 -> 292 ;
293 [label=<Age of individual &le; 23.0<br/>squared_error = 0.018<br/>samples = 127<br/>value = 0.027>, fillcolor="#ffffff"] ;
267 -> 293 ;
294 [label=<squared_error = 0.0<br/>samples = 1<br/>value = 0.693>, fillcolor="#fef8f5"] ;
293 -> 294 ;
295 [label=<Typical year income &le; 0.082<br/>squared_error = 0.015<br/>samples = 126<br/>value = 0.022>, fillcolor="#ffffff"] ;
293 -> 295 ;
296 [label=<squared_error = -0.0<br/>samples = 108<br/>value = 0.0>, fillcolor="#ffffff"] ;
295 -> 296 ;
297 [label=<log1p(Current checking account balance) &le; 0.347<br/>squared_error = 0.083<br/>samples = 18<br/>value = 0.154>, fillcolor="#fffefd"] ;
295 -> 297 ;
298 [label=<squared_error = -0.0<br/>samples = 14<br/>value = 0.0>, fillcolor="#ffffff"] ;
297 -> 298 ;
299 [label=<squared_error = -0.0<br/>samples = 4<br/>value = 0.693>, fillcolor="#fef8f5"] ;
297 -> 299 ;
300 [label=<Age of individual &le; 34.0<br/>squared_error = 3.608<br/>samples = 70<br/>value = 0.723>, fillcolor="#fef8f4"] ;
266 -> 300 ;
301 [label=<Typical year income &le; 0.067<br/>squared_error = 9.849<br/>samples = 11<br/>value = 2.461>, fillcolor="#fae8da"] ;
300 -> 301 ;
302 [label=<Age of individual &le; 24.0<br/>squared_error = 5.123<br/>samples = 8<br/>value = 0.95>, fillcolor="#fdf6f1"] ;
301 -> 302 ;
303 [label=<Typical year income &le; 0.035<br/>squared_error = 9.658<br/>samples = 2<br/>value = 3.801>, fillcolor="#f8dbc6"] ;
302 -> 303 ;
304 [label=<squared_error = 0.0<br/>samples = 1<br/>value = 6.909>, fillcolor="#f2be98"] ;
303 -> 304 ;
305 [label=<squared_error = -0.0<br/>samples = 1<br/>value = 0.693>, fillcolor="#fef8f5"] ;
303 -> 305 ;
306 [label=<squared_error = 0.0<br/>samples = 6<br/>value = 0.0>, fillcolor="#ffffff"] ;
302 -> 306 ;
307 [label=<squared_error = 0.125<br/>samples = 3<br/>value = 6.491>, fillcolor="#f2c29f"] ;
301 -> 307 ;
308 [label=<Age of individual &le; 75.0<br/>squared_error = 1.776<br/>samples = 59<br/>value = 0.399>, fillcolor="#fefbf9"] ;
300 -> 308 ;
309 [label=<Typical year income &le; 0.093<br/>squared_error = 1.075<br/>samples = 49<br/>value = 0.163>, fillcolor="#fffdfd"] ;
308 -> 309 ;
310 [label=<Typical year income &le; 0.006<br/>squared_error = 0.01<br/>samples = 45<br/>value = 0.015>, fillcolor="#ffffff"] ;
309 -> 310 ;
311 [label=<squared_error = 0.0<br/>samples = 1<br/>value = 0.693>, fillcolor="#fef8f5"] ;
310 -> 311 ;
312 [label=<squared_error = 0.0<br/>samples = 44<br/>value = 0.0>, fillcolor="#ffffff"] ;
310 -> 312 ;
313 [label=<Highest level of educational attainment &le; 7.5<br/>squared_error = 10.03<br/>samples = 4<br/>value = 1.828>, fillcolor="#fbeee4"] ;
309 -> 313 ;
314 [label=<squared_error = 0.0<br/>samples = 3<br/>value = 0.0>, fillcolor="#ffffff"] ;
313 -> 314 ;
315 [label=<squared_error = 0.0<br/>samples = 1<br/>value = 7.314>, fillcolor="#f1ba92"] ;
313 -> 315 ;
316 [label=<Age of individual &le; 77.5<br/>squared_error = 3.612<br/>samples = 10<br/>value = 1.551>, fillcolor="#fcf0e8"] ;
308 -> 316 ;
317 [label=<log1p(Current checking account balance) &le; 3.823<br/>squared_error = 0.009<br/>samples = 4<br/>value = 3.877>, fillcolor="#f7dac5"] ;
316 -> 317 ;
318 [label=<squared_error = 0.0<br/>samples = 3<br/>value = 3.932>, fillcolor="#f7dac5"] ;
317 -> 318 ;
319 [label=<squared_error = -0.0<br/>samples = 1<br/>value = 3.714>, fillcolor="#f8dcc8"] ;
317 -> 319 ;
320 [label=<squared_error = -0.0<br/>samples = 6<br/>value = 0.0>, fillcolor="#ffffff"] ;
316 -> 320 ;
321 [label=<log1p(Total education loan borrowed) &le; 9.205<br/>squared_error = 7.51<br/>samples = 43<br/>value = 1.383>, fillcolor="#fcf2ea"] ;
265 -> 321 ;
322 [label=<Age of individual &le; 24.5<br/>squared_error = 9.95<br/>samples = 9<br/>value = 4.192>, fillcolor="#f7d7c1"] ;
321 -> 322 ;
323 [label=<squared_error = 0.0<br/>samples = 3<br/>value = 0.0>, fillcolor="#ffffff"] ;
322 -> 323 ;
324 [label=<Age of individual &le; 38.0<br/>squared_error = 1.745<br/>samples = 6<br/>value = 6.288>, fillcolor="#f3c4a2"] ;
322 -> 324 ;
325 [label=<squared_error = -0.0<br/>samples = 3<br/>value = 7.601>, fillcolor="#f0b78e"] ;
324 -> 325 ;
326 [label=<Years in college &le; 2.5<br/>squared_error = 0.04<br/>samples = 3<br/>value = 4.974>, fillcolor="#f5d0b5"] ;
324 -> 326 ;
327 [label=<log1p(Total education loan borrowed)^2 &le; 80.729<br/>squared_error = 0.002<br/>samples = 2<br/>value = 4.835>, fillcolor="#f6d1b7"] ;
326 -> 327 ;
328 [label=<squared_error = 0.0<br/>samples = 1<br/>value = 4.875>, fillcolor="#f5d1b7"] ;
327 -> 328 ;
329 [label=<squared_error = 0.0<br/>samples = 1<br/>value = 4.796>, fillcolor="#f6d2b8"] ;
327 -> 329 ;
330 [label=<squared_error = -0.0<br/>samples = 1<br/>value = 5.252>, fillcolor="#f5cdb1"] ;
326 -> 330 ;
331 [label=<Age of individual &le; 33.0<br/>squared_error = 4.223<br/>samples = 34<br/>value = 0.639>, fillcolor="#fef9f5"] ;
321 -> 331 ;
332 [label=<Age of individual &le; 31.5<br/>squared_error = 12.302<br/>samples = 8<br/>value = 2.717>, fillcolor="#fae5d7"] ;
331 -> 332 ;
333 [label=<squared_error = 0.0<br/>samples = 5<br/>value = 0.0>, fillcolor="#ffffff"] ;
332 -> 333 ;
334 [label=<squared_error = 0.0<br/>samples = 3<br/>value = 7.245>, fillcolor="#f1ba93"] ;
332 -> 334 ;
335 [label=<squared_error = 0.0<br/>samples = 26<br/>value = 0.0>, fillcolor="#ffffff"] ;
331 -> 335 ;
336 [label=<log1p(Total education loan borrowed)^2 &le; 64.626<br/>squared_error = 6.821<br/>samples = 162<br/>value = 1.404>, fillcolor="#fcf2ea"] ;
264 -> 336 ;
337 [label=<Age of individual &le; 38.5<br/>squared_error = 8.233<br/>samples = 122<br/>value = 1.853>, fillcolor="#fbede3"] ;
336 -> 337 ;
338 [label=<Typical year income &le; 0.017<br/>squared_error = 11.485<br/>samples = 30<br/>value = 4.45>, fillcolor="#f6d5bd"] ;
337 -> 338 ;
339 [label=<squared_error = 0.0<br/>samples = 7<br/>value = 0.0>, fillcolor="#ffffff"] ;
338 -> 339 ;
340 [label=<Age of individual &le; 33.0<br/>squared_error = 7.12<br/>samples = 23<br/>value = 5.804>, fillcolor="#f4c8a9"] ;
338 -> 340 ;
341 [label=<Typical year income &le; 0.024<br/>squared_error = 3.596<br/>samples = 8<br/>value = 2.789>, fillcolor="#fae5d6"] ;
340 -> 341 ;
342 [label=<squared_error = 0.0<br/>samples = 1<br/>value = 6.909>, fillcolor="#f2be98"] ;
341 -> 342 ;
343 [label=<Typical year income &le; 0.048<br/>squared_error = 1.338<br/>samples = 7<br/>value = 2.2>, fillcolor="#fbeade"] ;
341 -> 343 ;
344 [label=<squared_error = 0.0<br/>samples = 2<br/>value = 3.714>, fillcolor="#f8dcc8"] ;
343 -> 344 ;
345 [label=<log1p(Current checking account balance) &le; 4.782<br/>squared_error = 0.591<br/>samples = 5<br/>value = 1.595>, fillcolor="#fcf0e7"] ;
343 -> 345 ;
346 [label=<Typical year income &le; 0.076<br/>squared_error = 0.082<br/>samples = 3<br/>value = 2.196>, fillcolor="#fbeade"] ;
345 -> 346 ;
347 [label=<squared_error = 0.0<br/>samples = 1<br/>value = 1.792>, fillcolor="#fceee4"] ;
346 -> 347 ;
348 [label=<Typical year income &le; 0.078<br/>squared_error = 0.0<br/>samples = 2<br/>value = 2.398>, fillcolor="#fae8db"] ;
346 -> 348 ;
349 [label=<squared_error = 0.0<br/>samples = 1<br/>value = 2.398>, fillcolor="#fae8db"] ;
348 -> 349 ;
350 [label=<squared_error = 0.0<br/>samples = 1<br/>value = 2.398>, fillcolor="#fae8db"] ;
348 -> 350 ;
351 [label=<squared_error = -0.0<br/>samples = 2<br/>value = 0.693>, fillcolor="#fef8f5"] ;
345 -> 351 ;
352 [label=<log1p(Current checking account balance) &le; 4.829<br/>squared_error = 1.564<br/>samples = 15<br/>value = 7.412>, fillcolor="#f1b991"] ;
340 -> 352 ;
353 [label=<log1p(Current checking account balance) &le; 4.329<br/>squared_error = 0.322<br/>samples = 11<br/>value = 8.096>, fillcolor="#efb287"] ;
352 -> 353 ;
354 [label=<squared_error = 0.0<br/>samples = 1<br/>value = 9.488>, fillcolor="#eca572"] ;
353 -> 354 ;
355 [label=<log1p(Current checking account balance) &le; 4.662<br/>squared_error = 0.141<br/>samples = 10<br/>value = 7.957>, fillcolor="#efb489"] ;
353 -> 355 ;
356 [label=<log1p(Total education loan borrowed) &le; 4.003<br/>squared_error = 0.044<br/>samples = 9<br/>value = 8.063>, fillcolor="#efb387"] ;
355 -> 356 ;
357 [label=<Years in college &le; 2.5<br/>squared_error = 0.002<br/>samples = 5<br/>value = 7.878>, fillcolor="#f0b48a"] ;
356 -> 357 ;
358 [label=<squared_error = 0.0<br/>samples = 4<br/>value = 7.901>, fillcolor="#f0b48a"] ;
357 -> 358 ;
359 [label=<squared_error = -0.0<br/>samples = 1<br/>value = 7.784>, fillcolor="#f0b58b"] ;
357 -> 359 ;
360 [label=<squared_error = -0.0<br/>samples = 4<br/>value = 8.294>, fillcolor="#efb184"] ;
356 -> 360 ;
361 [label=<squared_error = 0.0<br/>samples = 1<br/>value = 7.004>, fillcolor="#f1bd97"] ;
355 -> 361 ;
362 [label=<log1p(Current checking account balance) &le; 5.015<br/>squared_error = 0.156<br/>samples = 4<br/>value = 5.532>, fillcolor="#f4cbad"] ;
352 -> 362 ;
363 [label=<squared_error = 0.0<br/>samples = 1<br/>value = 6.217>, fillcolor="#f3c4a3"] ;
362 -> 363 ;
364 [label=<squared_error = 0.0<br/>samples = 3<br/>value = 5.303>, fillcolor="#f5cdb0"] ;
362 -> 364 ;
365 [label=<Typical year income &le; 0.087<br/>squared_error = 4.257<br/>samples = 92<br/>value = 1.006>, fillcolor="#fdf5f0"] ;
337 -> 365 ;
366 [label=<Age of individual &le; 77.5<br/>squared_error = 3.124<br/>samples = 89<br/>value = 0.811>, fillcolor="#fdf7f3"] ;
365 -> 366 ;
367 [label=<Age of individual &le; 45.0<br/>squared_error = 2.398<br/>samples = 84<br/>value = 0.585>, fillcolor="#fef9f6"] ;
366 -> 367 ;
368 [label=<Typical year income &le; 0.027<br/>squared_error = 4.515<br/>samples = 18<br/>value = 1.619>, fillcolor="#fcf0e7"] ;
367 -> 368 ;
369 [label=<squared_error = 0.544<br/>samples = 4<br/>value = 3.765>, fillcolor="#f8dbc7"] ;
368 -> 369 ;
370 [label=<Typical year income &le; 0.055<br/>squared_error = 3.957<br/>samples = 14<br/>value = 1.006>, fillcolor="#fdf5f0"] ;
368 -> 370 ;
371 [label=<log1p(Current checking account balance) &le; 4.907<br/>squared_error = 2.012<br/>samples = 13<br/>value = 0.605>, fillcolor="#fef9f6"] ;
370 -> 371 ;
372 [label=<squared_error = 0.0<br/>samples = 7<br/>value = 0.0>, fillcolor="#ffffff"] ;
371 -> 372 ;
373 [label=<log1p(Current checking account balance) &le; 5.079<br/>squared_error = 3.435<br/>samples = 6<br/>value = 1.311>, fillcolor="#fcf3ec"] ;
371 -> 373 ;
374 [label=<squared_error = 0.0<br/>samples = 2<br/>value = 3.932>, fillcolor="#f7dac5"] ;
373 -> 374 ;
375 [label=<squared_error = 0.0<br/>samples = 4<br/>value = 0.0>, fillcolor="#ffffff"] ;
373 -> 375 ;
376 [label=<squared_error = -0.0<br/>samples = 1<br/>value = 6.217>, fillcolor="#f3c4a3"] ;
370 -> 376 ;
377 [label=<log1p(Current checking account balance) &le; 5.17<br/>squared_error = 1.449<br/>samples = 66<br/>value = 0.302>, fillcolor="#fefcfb"] ;
367 -> 377 ;
378 [label=<Typical year income &le; 0.019<br/>squared_error = 0.478<br/>samples = 60<br/>value = 0.123>, fillcolor="#fffefd"] ;
377 -> 378 ;
379 [label=<Typical year income &le; 0.018<br/>squared_error = 1.342<br/>samples = 20<br/>value = 0.369>, fillcolor="#fefcfa"] ;
378 -> 379 ;
380 [label=<Highest level of educational attainment &le; 8.5<br/>squared_error = 0.064<br/>samples = 19<br/>value = 0.109>, fillcolor="#fffefd"] ;
379 -> 380 ;
381 [label=<squared_error = -0.0<br/>samples = 15<br/>value = 0.0>, fillcolor="#ffffff"] ;
380 -> 381 ;
382 [label=<Age of individual &le; 63.5<br/>squared_error = 0.09<br/>samples = 4<br/>value = 0.52>, fillcolor="#fefaf7"] ;
380 -> 382 ;
383 [label=<squared_error = 0.0<br/>samples = 1<br/>value = 0.0>, fillcolor="#ffffff"] ;
382 -> 383 ;
384 [label=<squared_error = -0.0<br/>samples = 3<br/>value = 0.693>, fillcolor="#fef8f5"] ;
382 -> 384 ;
385 [label=<squared_error = 0.0<br/>samples = 1<br/>value = 5.303>, fillcolor="#f5cdb0"] ;
379 -> 385 ;
386 [label=<squared_error = -0.0<br/>samples = 40<br/>value = 0.0>, fillcolor="#ffffff"] ;
378 -> 386 ;
387 [label=<Age of individual &le; 68.5<br/>squared_error = 7.619<br/>samples = 6<br/>value = 2.097>, fillcolor="#fbebe0"] ;
377 -> 387 ;
388 [label=<Highest level of educational attainment &le; 6.5<br/>squared_error = 1.38<br/>samples = 5<br/>value = 0.959>, fillcolor="#fdf6f1"] ;
387 -> 388 ;
389 [label=<squared_error = 0.0<br/>samples = 3<br/>value = 0.0>, fillcolor="#ffffff"] ;
388 -> 389 ;
390 [label=<squared_error = 0.0<br/>samples = 2<br/>value = 2.398>, fillcolor="#fae8db"] ;
388 -> 390 ;
391 [label=<squared_error = -0.0<br/>samples = 1<br/>value = 7.784>, fillcolor="#f0b58b"] ;
387 -> 391 ;
392 [label=<Typical year income &le; 0.053<br/>squared_error = 0.0<br/>samples = 5<br/>value = 4.615>, fillcolor="#f6d3ba"] ;
366 -> 392 ;
393 [label=<squared_error = 0.0<br/>samples = 1<br/>value = 4.615>, fillcolor="#f6d3ba"] ;
392 -> 393 ;
394 [label=<squared_error = 0.0<br/>samples = 4<br/>value = 4.615>, fillcolor="#f6d3ba"] ;
392 -> 394 ;
395 [label=<log1p(Current checking account balance) &le; 4.453<br/>squared_error = 3.204<br/>samples = 3<br/>value = 6.797>, fillcolor="#f2bf9a"] ;
365 -> 395 ;
396 [label=<squared_error = 0.0<br/>samples = 1<br/>value = 9.306>, fillcolor="#eda775"] ;
395 -> 396 ;
397 [label=<Typical year income &le; 0.094<br/>squared_error = 0.084<br/>samples = 2<br/>value = 5.542>, fillcolor="#f4cbad"] ;
395 -> 397 ;
398 [label=<squared_error = 0.0<br/>samples = 1<br/>value = 5.252>, fillcolor="#f5cdb1"] ;
397 -> 398 ;
399 [label=<squared_error = 0.0<br/>samples = 1<br/>value = 5.832>, fillcolor="#f4c8a8"] ;
397 -> 399 ;
400 [label=<log1p(Current checking account balance) &le; 4.453<br/>squared_error = 0.023<br/>samples = 40<br/>value = 0.035>, fillcolor="#fffffe"] ;
336 -> 400 ;
401 [label=<Age of individual &le; 34.0<br/>squared_error = 0.107<br/>samples = 3<br/>value = 0.462>, fillcolor="#fefbf8"] ;
400 -> 401 ;
402 [label=<squared_error = 0.0<br/>samples = 1<br/>value = 0.0>, fillcolor="#ffffff"] ;
401 -> 402 ;
403 [label=<squared_error = 0.0<br/>samples = 2<br/>value = 0.693>, fillcolor="#fef8f5"] ;
401 -> 403 ;
404 [label=<squared_error = 0.0<br/>samples = 37<br/>value = 0.0>, fillcolor="#ffffff"] ;
400 -> 404 ;
405 [label=<Age of individual &le; 47.0<br/>squared_error = 8.165<br/>samples = 24<br/>value = 3.004>, fillcolor="#f9e3d2"] ;
5 -> 405 ;
406 [label=<Age of individual &le; 39.5<br/>squared_error = 1.796<br/>samples = 13<br/>value = 0.733>, fillcolor="#fef8f4"] ;
405 -> 406 ;
407 [label=<squared_error = -0.0<br/>samples = 7<br/>value = 0.0>, fillcolor="#ffffff"] ;
406 -> 407 ;
408 [label=<Highest level of educational attainment &le; 8.5<br/>squared_error = 2.536<br/>samples = 6<br/>value = 1.587>, fillcolor="#fcf0e7"] ;
406 -> 408 ;
409 [label=<squared_error = 0.034<br/>samples = 3<br/>value = 3.174>, fillcolor="#f9e1d0"] ;
408 -> 409 ;
410 [label=<squared_error = 0.0<br/>samples = 3<br/>value = 0.0>, fillcolor="#ffffff"] ;
408 -> 410 ;
411 [label=<Typical year income &le; 0.041<br/>squared_error = 2.386<br/>samples = 11<br/>value = 5.689>, fillcolor="#f4c9aa"] ;
405 -> 411 ;
412 [label=<log1p(Current checking account balance) &le; 4.835<br/>squared_error = 1.896<br/>samples = 8<br/>value = 6.303>, fillcolor="#f3c3a1"] ;
411 -> 412 ;
413 [label=<log1p(Total education loan borrowed) &le; 10.895<br/>squared_error = 3.026<br/>samples = 5<br/>value = 6.351>, fillcolor="#f3c3a1"] ;
412 -> 413 ;
414 [label=<squared_error = 0.0<br/>samples = 1<br/>value = 6.312>, fillcolor="#f3c3a1"] ;
413 -> 414 ;
415 [label=<squared_error = 3.782<br/>samples = 4<br/>value = 6.361>, fillcolor="#f3c3a0"] ;
413 -> 415 ;
416 [label=<log1p(Current checking account balance) &le; 4.912<br/>squared_error = 0.002<br/>samples = 3<br/>value = 6.222>, fillcolor="#f3c4a3"] ;
412 -> 416 ;
417 [label=<log1p(Total education loan borrowed) &le; 10.849<br/>squared_error = 0.0<br/>samples = 2<br/>value = 6.196>, fillcolor="#f3c4a3"] ;
416 -> 417 ;
418 [label=<squared_error = 0.0<br/>samples = 1<br/>value = 6.217>, fillcolor="#f3c4a3"] ;
417 -> 418 ;
419 [label=<squared_error = 0.0<br/>samples = 1<br/>value = 6.176>, fillcolor="#f3c5a3"] ;
417 -> 419 ;
420 [label=<squared_error = 0.0<br/>samples = 1<br/>value = 6.275>, fillcolor="#f3c4a2"] ;
416 -> 420 ;
421 [label=<log1p(Total education loan borrowed)^2 &le; 119.336<br/>squared_error = 0.007<br/>samples = 3<br/>value = 4.051>, fillcolor="#f7d9c3"] ;
411 -> 421 ;
422 [label=<squared_error = 0.0<br/>samples = 2<br/>value = 4.111>, fillcolor="#f7d8c2"] ;
421 -> 422 ;
423 [label=<squared_error = -0.0<br/>samples = 1<br/>value = 3.932>, fillcolor="#f7dac5"] ;
421 -> 423 ;
424 [label=<Highest level of educational attainment &le; 2.0<br/>squared_error = 16.551<br/>samples = 8<br/>value = 6.425>, fillcolor="#f2c29f"] ;
4 -> 424 ;
425 [label=<squared_error = 0.0<br/>samples = 2<br/>value = 0.0>, fillcolor="#ffffff"] ;
424 -> 425 ;
426 [label=<Age of individual &le; 92.0<br/>squared_error = 3.719<br/>samples = 6<br/>value = 8.567>, fillcolor="#eeae80"] ;
424 -> 426 ;
427 [label=<squared_error = 0.0<br/>samples = 3<br/>value = 10.309>, fillcolor="#eb9d66"] ;
426 -> 427 ;
428 [label=<squared_error = 1.371<br/>samples = 3<br/>value = 6.826>, fillcolor="#f2be9a"] ;
426 -> 428 ;
429 [label=<Years in college &le; 3.0<br/>squared_error = 21.517<br/>samples = 27<br/>value = 4.984>, fillcolor="#f5d0b5"] ;
3 -> 429 ;
430 [label=<Age of individual &le; 45.5<br/>squared_error = 13.076<br/>samples = 19<br/>value = 2.727>, fillcolor="#fae5d6"] ;
429 -> 430 ;
431 [label=<log1p(Current checking account balance) &le; 5.108<br/>squared_error = 7.844<br/>samples = 6<br/>value = 6.029>, fillcolor="#f3c6a5"] ;
430 -> 431 ;
432 [label=<Age of individual &le; 38.5<br/>squared_error = 0.688<br/>samples = 5<br/>value = 7.235>, fillcolor="#f1bb93"] ;
431 -> 432 ;
433 [label=<Highest level of educational attainment &le; 7.0<br/>squared_error = 0.097<br/>samples = 4<br/>value = 7.626>, fillcolor="#f0b78e"] ;
432 -> 433 ;
434 [label=<squared_error = 0.0<br/>samples = 2<br/>value = 7.314>, fillcolor="#f1ba92"] ;
433 -> 434 ;
435 [label=<squared_error = 0.0<br/>samples = 2<br/>value = 7.938>, fillcolor="#f0b489"] ;
433 -> 435 ;
436 [label=<squared_error = 0.0<br/>samples = 1<br/>value = 5.673>, fillcolor="#f4c9ab"] ;
432 -> 436 ;
437 [label=<squared_error = 0.0<br/>samples = 1<br/>value = 0.0>, fillcolor="#ffffff"] ;
431 -> 437 ;
438 [label=<Age of individual &le; 63.5<br/>squared_error = 8.134<br/>samples = 13<br/>value = 1.203>, fillcolor="#fdf4ed"] ;
430 -> 438 ;
439 [label=<squared_error = -0.0<br/>samples = 11<br/>value = 0.0>, fillcolor="#ffffff"] ;
438 -> 439 ;
440 [label=<squared_error = 1.128<br/>samples = 2<br/>value = 7.82>, fillcolor="#f0b58b"] ;
438 -> 440 ;
441 [label=<Typical year income &le; 0.193<br/>squared_error = 0.756<br/>samples = 8<br/>value = 10.342>, fillcolor="#eb9d65"] ;
429 -> 441 ;
442 [label=<squared_error = 0.0<br/>samples = 4<br/>value = 9.473>, fillcolor="#eda572"] ;
441 -> 442 ;
443 [label=<squared_error = 0.0<br/>samples = 4<br/>value = 11.212>, fillcolor="#e99558"] ;
441 -> 443 ;
444 [label=<log1p(Total education loan borrowed)^2 &le; 118.276<br/>squared_error = 13.068<br/>samples = 384<br/>value = 2.48>, fillcolor="#fae8da"] ;
2 -> 444 ;
445 [label=<Age of individual &le; 29.5<br/>squared_error = 11.696<br/>samples = 336<br/>value = 2.166>, fillcolor="#fbebdf"] ;
444 -> 445 ;
446 [label=<Age of individual &le; 27.5<br/>squared_error = 19.229<br/>samples = 34<br/>value = 4.063>, fillcolor="#f7d9c3"] ;
445 -> 446 ;
447 [label=<Age of individual &le; 23.0<br/>squared_error = 10.347<br/>samples = 24<br/>value = 2.096>, fillcolor="#fbebe0"] ;
446 -> 447 ;
448 [label=<squared_error = 0.512<br/>samples = 4<br/>value = 6.807>, fillcolor="#f2bf9a"] ;
447 -> 448 ;
449 [label=<log1p(Current checking account balance) &le; 2.654<br/>squared_error = 6.989<br/>samples = 20<br/>value = 1.154>, fillcolor="#fdf4ee"] ;
447 -> 449 ;
450 [label=<Age of individual &le; 26.5<br/>squared_error = 11.912<br/>samples = 9<br/>value = 2.565>, fillcolor="#fae7d9"] ;
449 -> 450 ;
451 [label=<log1p(Current checking account balance) &le; 0.347<br/>squared_error = 0.786<br/>samples = 7<br/>value = 0.768>, fillcolor="#fef8f4"] ;
450 -> 451 ;
452 [label=<squared_error = -0.0<br/>samples = 4<br/>value = 0.0>, fillcolor="#ffffff"] ;
451 -> 452 ;
453 [label=<squared_error = -0.0<br/>samples = 3<br/>value = 1.792>, fillcolor="#fceee4"] ;
451 -> 453 ;
454 [label=<squared_error = 0.0<br/>samples = 2<br/>value = 8.854>, fillcolor="#eeab7b"] ;
450 -> 454 ;
455 [label=<squared_error = -0.0<br/>samples = 11<br/>value = 0.0>, fillcolor="#ffffff"] ;
449 -> 455 ;
456 [label=<log1p(Current checking account balance) &le; 4.934<br/>squared_error = 8.996<br/>samples = 10<br/>value = 8.782>, fillcolor="#eeac7c"] ;
446 -> 456 ;
457 [label=<log1p(Current checking account balance) &le; 3.507<br/>squared_error = 0.474<br/>samples = 9<br/>value = 9.757>, fillcolor="#eca36e"] ;
456 -> 457 ;
458 [label=<log1p(Current checking account balance) &le; 2.095<br/>squared_error = 0.0<br/>samples = 5<br/>value = 10.374>, fillcolor="#eb9d65"] ;
457 -> 458 ;
459 [label=<squared_error = 0.0<br/>samples = 1<br/>value = 10.374>, fillcolor="#eb9d65"] ;
458 -> 459 ;
460 [label=<squared_error = 0.0<br/>samples = 4<br/>value = 10.374>, fillcolor="#eb9d65"] ;
458 -> 460 ;
461 [label=<squared_error = -0.0<br/>samples = 4<br/>value = 8.987>, fillcolor="#edaa79"] ;
457 -> 461 ;
462 [label=<squared_error = 0.0<br/>samples = 1<br/>value = 0.0>, fillcolor="#ffffff"] ;
456 -> 462 ;
463 [label=<log1p(Current checking account balance) &le; 4.021<br/>squared_error = 10.397<br/>samples = 302<br/>value = 1.952>, fillcolor="#fbede2"] ;
445 -> 463 ;
464 [label=<Age of individual &le; 41.5<br/>squared_error = 8.238<br/>samples = 161<br/>value = 1.374>, fillcolor="#fcf2eb"] ;
463 -> 464 ;
465 [label=<Age of individual &le; 38.5<br/>squared_error = 0.465<br/>samples = 48<br/>value = 0.168>, fillcolor="#fffdfc"] ;
464 -> 465 ;
466 [label=<squared_error = -0.0<br/>samples = 38<br/>value = 0.0>, fillcolor="#ffffff"] ;
465 -> 466 ;
467 [label=<log1p(Total education loan borrowed)^2 &le; 79.325<br/>squared_error = 1.717<br/>samples = 10<br/>value = 0.808>, fillcolor="#fdf7f3"] ;
465 -> 467 ;
468 [label=<Highest level of educational attainment &le; 11.0<br/>squared_error = 0.113<br/>samples = 8<br/>value = 0.433>, fillcolor="#fefbf9"] ;
467 -> 468 ;
469 [label=<squared_error = 0.0<br/>samples = 5<br/>value = 0.693>, fillcolor="#fef8f5"] ;
468 -> 469 ;
470 [label=<squared_error = 0.0<br/>samples = 3<br/>value = 0.0>, fillcolor="#ffffff"] ;
468 -> 470 ;
471 [label=<Highest level of educational attainment &le; 11.0<br/>squared_error = 5.325<br/>samples = 2<br/>value = 2.308>, fillcolor="#fae9dd"] ;
467 -> 471 ;
472 [label=<squared_error = 0.0<br/>samples = 1<br/>value = 4.615>, fillcolor="#f6d3ba"] ;
471 -> 472 ;
473 [label=<squared_error = 0.0<br/>samples = 1<br/>value = 0.0>, fillcolor="#ffffff"] ;
471 -> 473 ;
474 [label=<Age of individual &le; 51.5<br/>squared_error = 10.659<br/>samples = 113<br/>value = 1.886>, fillcolor="#fbede3"] ;
464 -> 474 ;
475 [label=<Highest level of educational attainment &le; 12.5<br/>squared_error = 15.955<br/>samples = 43<br/>value = 2.89>, fillcolor="#f9e4d4"] ;
474 -> 475 ;
476 [label=<Age of individual &le; 50.5<br/>squared_error = 11.067<br/>samples = 38<br/>value = 1.989>, fillcolor="#fbece1"] ;
475 -> 476 ;
477 [label=<Age of individual &le; 43.0<br/>squared_error = 8.557<br/>samples = 28<br/>value = 1.188>, fillcolor="#fdf4ed"] ;
476 -> 477 ;
478 [label=<Highest level of educational attainment &le; 11.5<br/>squared_error = 18.3<br/>samples = 7<br/>value = 3.68>, fillcolor="#f8dcc8"] ;
477 -> 478 ;
479 [label=<squared_error = -0.0<br/>samples = 4<br/>value = 0.0>, fillcolor="#ffffff"] ;
478 -> 479 ;
480 [label=<Typical year income &le; 0.019<br/>squared_error = 0.571<br/>samples = 3<br/>value = 8.586>, fillcolor="#eeae7f"] ;
478 -> 480 ;
481 [label=<squared_error = 0.0<br/>samples = 1<br/>value = 9.616>, fillcolor="#eca470"] ;
480 -> 481 ;
482 [label=<Typical year income &le; 0.031<br/>squared_error = 0.061<br/>samples = 2<br/>value = 8.072>, fillcolor="#efb387"] ;
480 -> 482 ;
483 [label=<squared_error = 0.0<br/>samples = 1<br/>value = 8.319>, fillcolor="#efb083"] ;
482 -> 483 ;
484 [label=<squared_error = -0.0<br/>samples = 1<br/>value = 7.824>, fillcolor="#f0b58b"] ;
482 -> 484 ;
485 [label=<Typical year income &le; 0.01<br/>squared_error = 2.548<br/>samples = 21<br/>value = 0.357>, fillcolor="#fefcfa"] ;
477 -> 485 ;
486 [label=<log1p(Total education loan borrowed)^2 &le; 33.53<br/>squared_error = 10.536<br/>samples = 4<br/>value = 1.874>, fillcolor="#fbede3"] ;
485 -> 486 ;
487 [label=<squared_error = 0.0<br/>samples = 1<br/>value = 7.496>, fillcolor="#f0b890"] ;
486 -> 487 ;
488 [label=<squared_error = 0.0<br/>samples = 3<br/>value = 0.0>, fillcolor="#ffffff"] ;
486 -> 488 ;
489 [label=<squared_error = 0.0<br/>samples = 17<br/>value = 0.0>, fillcolor="#ffffff"] ;
485 -> 489 ;
490 [label=<Highest level of educational attainment &le; 11.5<br/>squared_error = 11.263<br/>samples = 10<br/>value = 4.233>, fillcolor="#f7d7c0"] ;
476 -> 490 ;
491 [label=<log1p(Total education loan borrowed) &le; 4.494<br/>squared_error = 5.121<br/>samples = 7<br/>value = 6.047>, fillcolor="#f3c6a5"] ;
490 -> 491 ;
492 [label=<squared_error = 0.0<br/>samples = 4<br/>value = 8.007>, fillcolor="#efb388"] ;
491 -> 492 ;
493 [label=<squared_error = -0.0<br/>samples = 3<br/>value = 3.434>, fillcolor="#f8dfcc"] ;
491 -> 493 ;
494 [label=<squared_error = -0.0<br/>samples = 3<br/>value = 0.0>, fillcolor="#ffffff"] ;
490 -> 494 ;
495 [label=<squared_error = 0.0<br/>samples = 5<br/>value = 9.741>, fillcolor="#eca36e"] ;
475 -> 495 ;
496 [label=<Typical year income &le; 0.071<br/>squared_error = 6.407<br/>samples = 70<br/>value = 1.27>, fillcolor="#fdf3ec"] ;
474 -> 496 ;
497 [label=<Age of individual &le; 75.0<br/>squared_error = 5.404<br/>samples = 64<br/>value = 0.908>, fillcolor="#fdf6f2"] ;
496 -> 497 ;
498 [label=<Highest level of educational attainment &le; 11.0<br/>squared_error = 3.087<br/>samples = 61<br/>value = 0.734>, fillcolor="#fef8f4"] ;
497 -> 498 ;
499 [label=<Age of individual &le; 70.5<br/>squared_error = 4.975<br/>samples = 29<br/>value = 1.384>, fillcolor="#fcf2ea"] ;
498 -> 499 ;
500 [label=<log1p(Current checking account balance) &le; 3.823<br/>squared_error = 2.916<br/>samples = 27<br/>value = 0.975>, fillcolor="#fdf6f1"] ;
499 -> 500 ;
501 [label=<Age of individual &le; 59.5<br/>squared_error = 2.649<br/>samples = 19<br/>value = 0.558>, fillcolor="#fefaf7"] ;
500 -> 501 ;
502 [label=<squared_error = 0.0<br/>samples = 9<br/>value = 0.0>, fillcolor="#ffffff"] ;
501 -> 502 ;
503 [label=<Age of individual &le; 63.0<br/>squared_error = 4.5<br/>samples = 10<br/>value = 1.061>, fillcolor="#fdf5ef"] ;
501 -> 503 ;
504 [label=<squared_error = 0.0<br/>samples = 2<br/>value = 5.303>, fillcolor="#f5cdb0"] ;
503 -> 504 ;
505 [label=<squared_error = 0.0<br/>samples = 8<br/>value = 0.0>, fillcolor="#ffffff"] ;
503 -> 505 ;
506 [label=<Typical year income &le; 0.02<br/>squared_error = 2.156<br/>samples = 8<br/>value = 1.966>, fillcolor="#fbece2"] ;
500 -> 506 ;
507 [label=<Age of individual &le; 55.5<br/>squared_error = 1.157<br/>samples = 6<br/>value = 2.621>, fillcolor="#fae6d8"] ;
506 -> 507 ;
508 [label=<squared_error = 0.0<br/>samples = 1<br/>value = 4.949>, fillcolor="#f5d0b5"] ;
507 -> 508 ;
509 [label=<squared_error = 0.088<br/>samples = 5<br/>value = 2.155>, fillcolor="#fbebdf"] ;
507 -> 509 ;
510 [label=<squared_error = -0.0<br/>samples = 2<br/>value = 0.0>, fillcolor="#ffffff"] ;
506 -> 510 ;
511 [label=<squared_error = -0.0<br/>samples = 2<br/>value = 6.909>, fillcolor="#f2be98"] ;
499 -> 511 ;
512 [label=<log1p(Current checking account balance) &le; 3.239<br/>squared_error = 0.645<br/>samples = 32<br/>value = 0.144>, fillcolor="#fffefd"] ;
498 -> 512 ;
513 [label=<squared_error = 0.0<br/>samples = 29<br/>value = 0.0>, fillcolor="#ffffff"] ;
512 -> 513 ;
514 [label=<Highest level of educational attainment &le; 13.0<br/>squared_error = 4.733<br/>samples = 3<br/>value = 1.538>, fillcolor="#fcf0e8"] ;
512 -> 514 ;
515 [label=<squared_error = 0.0<br/>samples = 2<br/>value = 0.0>, fillcolor="#ffffff"] ;
514 -> 515 ;
516 [label=<squared_error = 0.0<br/>samples = 1<br/>value = 4.615>, fillcolor="#f6d3ba"] ;
514 -> 516 ;
517 [label=<Highest level of educational attainment &le; 13.0<br/>squared_error = 39.428<br/>samples = 3<br/>value = 4.44>, fillcolor="#f6d5bd"] ;
497 -> 517 ;
518 [label=<squared_error = 0.0<br/>samples = 1<br/>value = 13.32>, fillcolor="#e58139"] ;
517 -> 518 ;
519 [label=<squared_error = 0.0<br/>samples = 2<br/>value = 0.0>, fillcolor="#ffffff"] ;
517 -> 519 ;
520 [label=<Typical year income &le; 0.191<br/>squared_error = 0.782<br/>samples = 6<br/>value = 5.132>, fillcolor="#f5ceb3"] ;
496 -> 520 ;
521 [label=<log1p(Current checking account balance) &le; 3.683<br/>squared_error = 0.078<br/>samples = 3<br/>value = 4.27>, fillcolor="#f7d7c0"] ;
520 -> 521 ;
522 [label=<Typical year income &le; 0.133<br/>squared_error = 0.027<br/>samples = 2<br/>value = 4.097>, fillcolor="#f7d8c2"] ;
521 -> 522 ;
523 [label=<squared_error = 0.0<br/>samples = 1<br/>value = 4.263>, fillcolor="#f7d7c0"] ;
522 -> 523 ;
524 [label=<squared_error = 0.0<br/>samples = 1<br/>value = 3.932>, fillcolor="#f7dac5"] ;
522 -> 524 ;
525 [label=<squared_error = -0.0<br/>samples = 1<br/>value = 4.615>, fillcolor="#f6d3ba"] ;
521 -> 525 ;
526 [label=<squared_error = 0.0<br/>samples = 3<br/>value = 5.994>, fillcolor="#f3c6a6"] ;
520 -> 526 ;
527 [label=<log1p(Total brokerage account balance of family) &le; 4.952<br/>squared_error = 12.046<br/>samples = 141<br/>value = 2.612>, fillcolor="#fae6d8"] ;
463 -> 527 ;
528 [label=<Highest level of educational attainment &le; 11.5<br/>squared_error = 11.081<br/>samples = 138<br/>value = 2.45>, fillcolor="#fae8db"] ;
527 -> 528 ;
529 [label=<Age of individual &le; 41.5<br/>squared_error = 12.221<br/>samples = 67<br/>value = 3.396>, fillcolor="#f8dfcd"] ;
528 -> 529 ;
530 [label=<Age of individual &le; 39.5<br/>squared_error = 2.867<br/>samples = 11<br/>value = 7.021>, fillcolor="#f1bd97"] ;
529 -> 530 ;
531 [label=<Age of individual &le; 35.5<br/>squared_error = 0.555<br/>samples = 5<br/>value = 5.254>, fillcolor="#f5cdb1"] ;
530 -> 531 ;
532 [label=<log1p(Current checking account balance) &le; 4.753<br/>squared_error = 0.472<br/>samples = 3<br/>value = 5.679>, fillcolor="#f4c9ab"] ;
531 -> 532 ;
533 [label=<squared_error = 0.0<br/>samples = 1<br/>value = 6.217>, fillcolor="#f3c4a3"] ;
532 -> 533 ;
534 [label=<log1p(Current checking account balance) &le; 4.907<br/>squared_error = 0.491<br/>samples = 2<br/>value = 5.41>, fillcolor="#f4ccaf"] ;
532 -> 534 ;
535 [label=<squared_error = 0.0<br/>samples = 1<br/>value = 4.71>, fillcolor="#f6d2b9"] ;
534 -> 535 ;
536 [label=<squared_error = 0.0<br/>samples = 1<br/>value = 6.111>, fillcolor="#f3c5a4"] ;
534 -> 536 ;
537 [label=<squared_error = 0.0<br/>samples = 2<br/>value = 4.615>, fillcolor="#f6d3ba"] ;
531 -> 537 ;
538 [label=<Typical year income &le; 0.076<br/>squared_error = 0.02<br/>samples = 6<br/>value = 8.494>, fillcolor="#eeaf81"] ;
530 -> 538 ;
539 [label=<squared_error = 0.0<br/>samples = 2<br/>value = 8.294>, fillcolor="#efb184"] ;
538 -> 539 ;
540 [label=<squared_error = -0.0<br/>samples = 4<br/>value = 8.594>, fillcolor="#eeae7f"] ;
538 -> 540 ;
541 [label=<Age of individual &le; 63.5<br/>squared_error = 10.97<br/>samples = 56<br/>value = 2.684>, fillcolor="#fae6d7"] ;
529 -> 541 ;
542 [label=<log1p(Current checking account balance) &le; 5.14<br/>squared_error = 5.429<br/>samples = 38<br/>value = 1.677>, fillcolor="#fcefe6"] ;
541 -> 542 ;
543 [label=<log1p(Current checking account balance) &le; 4.329<br/>squared_error = 3.167<br/>samples = 35<br/>value = 1.213>, fillcolor="#fdf4ed"] ;
542 -> 543 ;
544 [label=<Typical year income &le; 0.012<br/>squared_error = 7.253<br/>samples = 3<br/>value = 3.991>, fillcolor="#f7d9c4"] ;
543 -> 544 ;
545 [label=<squared_error = 0.0<br/>samples = 1<br/>value = 7.784>, fillcolor="#f0b58b"] ;
544 -> 545 ;
546 [label=<squared_error = 0.092<br/>samples = 2<br/>value = 2.095>, fillcolor="#fbebe0"] ;
544 -> 546 ;
547 [label=<Age of individual &le; 47.5<br/>squared_error = 1.993<br/>samples = 32<br/>value = 0.953>, fillcolor="#fdf6f1"] ;
543 -> 547 ;
548 [label=<Highest level of educational attainment &le; 10.5<br/>squared_error = 0.085<br/>samples = 13<br/>value = 0.16>, fillcolor="#fffdfd"] ;
547 -> 548 ;
549 [label=<squared_error = 0.0<br/>samples = 6<br/>value = 0.0>, fillcolor="#ffffff"] ;
548 -> 549 ;
550 [label=<log1p(Current checking account balance) &le; 4.662<br/>squared_error = 0.118<br/>samples = 7<br/>value = 0.297>, fillcolor="#fefcfb"] ;
548 -> 550 ;
551 [label=<squared_error = -0.0<br/>samples = 3<br/>value = 0.693>, fillcolor="#fef8f5"] ;
550 -> 551 ;
552 [label=<squared_error = 0.0<br/>samples = 4<br/>value = 0.0>, fillcolor="#ffffff"] ;
550 -> 552 ;
553 [label=<Highest level of educational attainment &le; 10.5<br/>squared_error = 2.574<br/>samples = 19<br/>value = 1.495>, fillcolor="#fcf1e9"] ;
547 -> 553 ;
554 [label=<Age of individual &le; 49.5<br/>squared_error = 0.631<br/>samples = 13<br/>value = 0.673>, fillcolor="#fef9f5"] ;
553 -> 554 ;
555 [label=<squared_error = 0.082<br/>samples = 3<br/>value = 1.994>, fillcolor="#fbece1"] ;
554 -> 555 ;
556 [label=<Age of individual &le; 55.5<br/>squared_error = 0.115<br/>samples = 10<br/>value = 0.277>, fillcolor="#fefcfb"] ;
554 -> 556 ;
557 [label=<squared_error = 0.0<br/>samples = 4<br/>value = 0.693>, fillcolor="#fef8f5"] ;
556 -> 557 ;
558 [label=<squared_error = 0.0<br/>samples = 6<br/>value = 0.0>, fillcolor="#ffffff"] ;
556 -> 558 ;
559 [label=<log1p(Total education loan borrowed)^2 &le; 51.275<br/>squared_error = 2.147<br/>samples = 6<br/>value = 3.277>, fillcolor="#f9e0ce"] ;
553 -> 559 ;
560 [label=<log1p(Current checking account balance) &le; 4.662<br/>squared_error = 0.0<br/>samples = 5<br/>value = 3.932>, fillcolor="#f7dac5"] ;
559 -> 560 ;
561 [label=<squared_error = 0.0<br/>samples = 2<br/>value = 3.932>, fillcolor="#f7dac5"] ;
560 -> 561 ;
562 [label=<squared_error = 0.0<br/>samples = 3<br/>value = 3.932>, fillcolor="#f7dac5"] ;
560 -> 562 ;
563 [label=<squared_error = 0.0<br/>samples = 1<br/>value = 0.0>, fillcolor="#ffffff"] ;
559 -> 563 ;
564 [label=<squared_error = -0.0<br/>samples = 3<br/>value = 7.091>, fillcolor="#f1bc96"] ;
542 -> 564 ;
565 [label=<log1p(Current checking account balance) &le; 4.662<br/>squared_error = 16.008<br/>samples = 18<br/>value = 4.81>, fillcolor="#f6d1b7"] ;
541 -> 565 ;
566 [label=<log1p(Total education loan borrowed) &le; 3.892<br/>squared_error = 12.082<br/>samples = 14<br/>value = 6.184>, fillcolor="#f3c4a3"] ;
565 -> 566 ;
567 [label=<Age of individual &le; 69.0<br/>squared_error = 1.073<br/>samples = 8<br/>value = 8.939>, fillcolor="#eeaa7a"] ;
566 -> 567 ;
568 [label=<squared_error = 0.0<br/>samples = 5<br/>value = 9.741>, fillcolor="#eca36e"] ;
567 -> 568 ;
569 [label=<log1p(Current checking account balance) &le; 4.187<br/>squared_error = 0.0<br/>samples = 3<br/>value = 7.601>, fillcolor="#f0b78e"] ;
567 -> 569 ;
570 [label=<squared_error = 0.0<br/>samples = 1<br/>value = 7.601>, fillcolor="#f0b78e"] ;
569 -> 570 ;
571 [label=<squared_error = -0.0<br/>samples = 2<br/>value = 7.601>, fillcolor="#f0b78e"] ;
569 -> 571 ;
572 [label=<Highest level of educational attainment &le; 10.5<br/>squared_error = 3.161<br/>samples = 6<br/>value = 2.512>, fillcolor="#fae7da"] ;
566 -> 572 ;
573 [label=<squared_error = 0.009<br/>samples = 4<br/>value = 3.768>, fillcolor="#f8dbc7"] ;
572 -> 573 ;
574 [label=<squared_error = 0.0<br/>samples = 2<br/>value = 0.0>, fillcolor="#ffffff"] ;
572 -> 574 ;
575 [label=<log1p(Current checking account balance) &le; 4.954<br/>squared_error = 0.0<br/>samples = 4<br/>value = 0.0>, fillcolor="#ffffff"] ;
565 -> 575 ;
576 [label=<squared_error = 0.0<br/>samples = 1<br/>value = 0.0>, fillcolor="#ffffff"] ;
575 -> 576 ;
577 [label=<squared_error = 0.0<br/>samples = 3<br/>value = 0.0>, fillcolor="#ffffff"] ;
575 -> 577 ;
578 [label=<Age of individual &le; 38.5<br/>squared_error = 8.363<br/>samples = 71<br/>value = 1.558>, fillcolor="#fcf0e8"] ;
528 -> 578 ;
579 [label=<Age of individual &le; 37.0<br/>squared_error = 15.309<br/>samples = 12<br/>value = 3.603>, fillcolor="#f8ddc9"] ;
578 -> 579 ;
580 [label=<log1p(Total education loan borrowed) &le; 4.249<br/>squared_error = 3.263<br/>samples = 8<br/>value = 1.041>, fillcolor="#fdf5f0"] ;
579 -> 580 ;
581 [label=<squared_error = 0.054<br/>samples = 2<br/>value = 4.163>, fillcolor="#f7d8c1"] ;
580 -> 581 ;
582 [label=<squared_error = 0.0<br/>samples = 6<br/>value = 0.0>, fillcolor="#ffffff"] ;
580 -> 582 ;
583 [label=<squared_error = 0.0<br/>samples = 4<br/>value = 8.728>, fillcolor="#eeac7d"] ;
579 -> 583 ;
584 [label=<Typical year income &le; 0.079<br/>squared_error = 5.926<br/>samples = 59<br/>value = 1.142>, fillcolor="#fdf4ee"] ;
578 -> 584 ;
585 [label=<Highest level of educational attainment &le; 13.5<br/>squared_error = 4.653<br/>samples = 48<br/>value = 0.796>, fillcolor="#fdf7f3"] ;
584 -> 585 ;
586 [label=<Age of individual &le; 62.5<br/>squared_error = 4.278<br/>samples = 45<br/>value = 0.644>, fillcolor="#fef9f5"] ;
585 -> 586 ;
587 [label=<Age of individual &le; 57.0<br/>squared_error = 7.34<br/>samples = 24<br/>value = 1.208>, fillcolor="#fdf4ed"] ;
586 -> 587 ;
588 [label=<Age of individual &le; 45.0<br/>squared_error = 5.605<br/>samples = 23<br/>value = 0.915>, fillcolor="#fdf6f1"] ;
587 -> 588 ;
589 [label=<squared_error = 0.0<br/>samples = 11<br/>value = 0.0>, fillcolor="#ffffff"] ;
588 -> 589 ;
590 [label=<Age of individual &le; 46.5<br/>squared_error = 9.271<br/>samples = 12<br/>value = 1.754>, fillcolor="#fceee5"] ;
588 -> 590 ;
591 [label=<squared_error = 0.148<br/>samples = 3<br/>value = 7.018>, fillcolor="#f1bd97"] ;
590 -> 591 ;
592 [label=<squared_error = 0.0<br/>samples = 9<br/>value = 0.0>, fillcolor="#ffffff"] ;
590 -> 592 ;
593 [label=<squared_error = 0.0<br/>samples = 1<br/>value = 7.938>, fillcolor="#f0b489"] ;
587 -> 593 ;
594 [label=<squared_error = 0.0<br/>samples = 21<br/>value = 0.0>, fillcolor="#ffffff"] ;
586 -> 594 ;
595 [label=<Age of individual &le; 63.0<br/>squared_error = 4.733<br/>samples = 3<br/>value = 3.077>, fillcolor="#f9e2d1"] ;
585 -> 595 ;
596 [label=<squared_error = 0.0<br/>samples = 1<br/>value = 0.0>, fillcolor="#ffffff"] ;
595 -> 596 ;
597 [label=<squared_error = 0.0<br/>samples = 2<br/>value = 4.615>, fillcolor="#f6d3ba"] ;
595 -> 597 ;
598 [label=<Typical year income &le; 0.124<br/>squared_error = 8.693<br/>samples = 11<br/>value = 2.648>, fillcolor="#fae6d8"] ;
584 -> 598 ;
599 [label=<log1p(Current checking account balance) &le; 4.934<br/>squared_error = 5.223<br/>samples = 6<br/>value = 4.855>, fillcolor="#f6d1b7"] ;
598 -> 599 ;
600 [label=<log1p(Total education loan borrowed)^2 &le; 48.002<br/>squared_error = 0.611<br/>samples = 5<br/>value = 5.826>, fillcolor="#f4c8a8"] ;
599 -> 600 ;
601 [label=<squared_error = 0.0<br/>samples = 4<br/>value = 6.217>, fillcolor="#f3c4a3"] ;
600 -> 601 ;
602 [label=<squared_error = 0.0<br/>samples = 1<br/>value = 4.263>, fillcolor="#f7d7c0"] ;
600 -> 602 ;
603 [label=<squared_error = -0.0<br/>samples = 1<br/>value = 0.0>, fillcolor="#ffffff"] ;
599 -> 603 ;
604 [label=<squared_error = 0.0<br/>samples = 5<br/>value = 0.0>, fillcolor="#ffffff"] ;
598 -> 604 ;
605 [label=<squared_error = 0.0<br/>samples = 3<br/>value = 10.043>, fillcolor="#eba06a"] ;
527 -> 605 ;
606 [label=<Age of individual &le; 45.5<br/>squared_error = 17.13<br/>samples = 48<br/>value = 4.683>, fillcolor="#f6d3b9"] ;
444 -> 606 ;
607 [label=<Highest level of educational attainment &le; 10.5<br/>squared_error = 9.236<br/>samples = 26<br/>value = 7.361>, fillcolor="#f1b992"] ;
606 -> 607 ;
608 [label=<log1p(Current checking account balance) &le; 4.505<br/>squared_error = 0.119<br/>samples = 9<br/>value = 9.595>, fillcolor="#eca470"] ;
607 -> 608 ;
609 [label=<squared_error = -0.0<br/>samples = 5<br/>value = 9.904>, fillcolor="#eca16c"] ;
608 -> 609 ;
610 [label=<squared_error = 0.0<br/>samples = 4<br/>value = 9.21>, fillcolor="#eda876"] ;
608 -> 610 ;
611 [label=<Typical year income &le; 0.014<br/>squared_error = 10.02<br/>samples = 17<br/>value = 6.178>, fillcolor="#f3c5a3"] ;
607 -> 611 ;
612 [label=<log1p(Current checking account balance) &le; 1.857<br/>squared_error = 11.242<br/>samples = 7<br/>value = 3.771>, fillcolor="#f8dbc7"] ;
611 -> 612 ;
613 [label=<squared_error = 0.0<br/>samples = 2<br/>value = 0.0>, fillcolor="#ffffff"] ;
612 -> 613 ;
614 [label=<Highest level of educational attainment &le; 11.5<br/>squared_error = 7.776<br/>samples = 5<br/>value = 5.279>, fillcolor="#f5cdb1"] ;
612 -> 614 ;
615 [label=<log1p(Current checking account balance) &le; 4.321<br/>squared_error = 1.012<br/>samples = 4<br/>value = 6.599>, fillcolor="#f2c19d"] ;
614 -> 615 ;
616 [label=<squared_error = 0.0<br/>samples = 2<br/>value = 7.601>, fillcolor="#f0b78e"] ;
615 -> 616 ;
617 [label=<squared_error = 0.012<br/>samples = 2<br/>value = 5.596>, fillcolor="#f4caac"] ;
615 -> 617 ;
618 [label=<squared_error = 0.0<br/>samples = 1<br/>value = 0.0>, fillcolor="#ffffff"] ;
614 -> 618 ;
619 [label=<Age of individual &le; 38.0<br/>squared_error = 2.267<br/>samples = 10<br/>value = 7.864>, fillcolor="#f0b58a"] ;
611 -> 619 ;
620 [label=<Highest level of educational attainment &le; 12.5<br/>squared_error = 0.647<br/>samples = 8<br/>value = 7.203>, fillcolor="#f1bb94"] ;
619 -> 620 ;
621 [label=<squared_error = 0.0<br/>samples = 4<br/>value = 8.007>, fillcolor="#efb388"] ;
620 -> 621 ;
622 [label=<squared_error = -0.0<br/>samples = 4<br/>value = 6.399>, fillcolor="#f3c2a0"] ;
620 -> 622 ;
623 [label=<squared_error = 0.004<br/>samples = 2<br/>value = 10.509>, fillcolor="#ea9c63"] ;
619 -> 623 ;
624 [label=<log1p(Current checking account balance) &le; 4.705<br/>squared_error = 7.959<br/>samples = 22<br/>value = 1.517>, fillcolor="#fcf1e8"] ;
606 -> 624 ;
625 [label=<Highest level of educational attainment &le; 11.0<br/>squared_error = 1.583<br/>samples = 16<br/>value = 0.325>, fillcolor="#fefcfa"] ;
624 -> 625 ;
626 [label=<squared_error = 0.0<br/>samples = 1<br/>value = 5.198>, fillcolor="#f5ceb2"] ;
625 -> 626 ;
627 [label=<squared_error = 0.0<br/>samples = 15<br/>value = 0.0>, fillcolor="#ffffff"] ;
625 -> 627 ;
628 [label=<Age of individual &le; 49.5<br/>squared_error = 11.068<br/>samples = 6<br/>value = 4.695>, fillcolor="#f6d3b9"] ;
624 -> 628 ;
629 [label=<Typical year income &le; 0.039<br/>squared_error = 12.487<br/>samples = 3<br/>value = 2.499>, fillcolor="#fae7da"] ;
628 -> 629 ;
630 [label=<squared_error = 0.0<br/>samples = 2<br/>value = 0.0>, fillcolor="#ffffff"] ;
629 -> 630 ;
631 [label=<squared_error = 0.0<br/>samples = 1<br/>value = 7.496>, fillcolor="#f0b890"] ;
629 -> 631 ;
632 [label=<log1p(Current checking account balance) &le; 4.835<br/>squared_error = 0.001<br/>samples = 3<br/>value = 6.892>, fillcolor="#f2be99"] ;
628 -> 632 ;
633 [label=<squared_error = 0.0<br/>samples = 2<br/>value = 6.909>, fillcolor="#f2be98"] ;
632 -> 633 ;
634 [label=<squared_error = -0.0<br/>samples = 1<br/>value = 6.858>, fillcolor="#f2be99"] ;
632 -> 634 ;
635 [label=<Highest level of educational attainment &le; 10.5<br/>squared_error = 18.142<br/>samples = 3485<br/>value = 4.038>, fillcolor="#f7d9c3"] ;
1 -> 635 ;
636 [label=<Highest level of educational attainment &le; 6.5<br/>squared_error = 15.222<br/>samples = 2249<br/>value = 3.164>, fillcolor="#f9e1d0"] ;
635 -> 636 ;
637 [label=<log1p(Total education loan borrowed) &le; 3.657<br/>squared_error = 7.852<br/>samples = 339<br/>value = 1.333>, fillcolor="#fcf2eb"] ;
636 -> 637 ;
638 [label=<Age of individual &le; 25.5<br/>squared_error = 6.344<br/>samples = 313<br/>value = 1.024>, fillcolor="#fdf5f0"] ;
637 -> 638 ;
639 [label=<Age of individual &le; 22.5<br/>squared_error = 12.354<br/>samples = 9<br/>value = 4.777>, fillcolor="#f6d2b8"] ;
638 -> 639 ;
640 [label=<squared_error = 0.0<br/>samples = 3<br/>value = 0.0>, fillcolor="#ffffff"] ;
639 -> 640 ;
641 [label=<Highest level of educational attainment &le; 4.0<br/>squared_error = 1.413<br/>samples = 6<br/>value = 7.166>, fillcolor="#f1bb94"] ;
639 -> 641 ;
642 [label=<squared_error = 0.0<br/>samples = 4<br/>value = 8.007>, fillcolor="#efb388"] ;
641 -> 642 ;
643 [label=<squared_error = -0.0<br/>samples = 2<br/>value = 5.485>, fillcolor="#f4cbad"] ;
641 -> 643 ;
644 [label=<Highest level of educational attainment &le; 0.5<br/>squared_error = 5.736<br/>samples = 304<br/>value = 0.913>, fillcolor="#fdf6f1"] ;
638 -> 644 ;
645 [label=<squared_error = 0.0<br/>samples = 3<br/>value = 5.707>, fillcolor="#f4c9aa"] ;
644 -> 645 ;
646 [label=<Highest level of educational attainment &le; 2.5<br/>squared_error = 5.562<br/>samples = 301<br/>value = 0.865>, fillcolor="#fdf7f2"] ;
644 -> 646 ;
647 [label=<squared_error = 0.0<br/>samples = 77<br/>value = 0.0>, fillcolor="#ffffff"] ;
646 -> 647 ;
648 [label=<Age of individual &le; 67.5<br/>squared_error = 7.128<br/>samples = 224<br/>value = 1.162>, fillcolor="#fdf4ee"] ;
646 -> 648 ;
649 [label=<log1p(Current checking account balance) &le; 6.956<br/>squared_error = 4.568<br/>samples = 157<br/>value = 0.797>, fillcolor="#fdf7f3"] ;
648 -> 649 ;
650 [label=<Highest level of educational attainment &le; 3.5<br/>squared_error = 2.61<br/>samples = 134<br/>value = 0.499>, fillcolor="#fefaf8"] ;
649 -> 650 ;
651 [label=<Age of individual &le; 39.0<br/>squared_error = 7.542<br/>samples = 18<br/>value = 1.914>, fillcolor="#fbede3"] ;
650 -> 651 ;
652 [label=<squared_error = 0.0<br/>samples = 9<br/>value = 0.0>, fillcolor="#ffffff"] ;
651 -> 652 ;
653 [label=<Age of individual &le; 48.5<br/>squared_error = 7.756<br/>samples = 9<br/>value = 3.828>, fillcolor="#f8dbc6"] ;
651 -> 653 ;
654 [label=<log1p(Current checking account balance) &le; 6.271<br/>squared_error = 0.641<br/>samples = 6<br/>value = 5.743>, fillcolor="#f4c9aa"] ;
653 -> 654 ;
655 [label=<log1p(Current checking account balance) &le; 5.42<br/>squared_error = 0.588<br/>samples = 5<br/>value = 5.916>, fillcolor="#f3c7a7"] ;
654 -> 655 ;
656 [label=<Typical year income &le; 0.03<br/>squared_error = 0.83<br/>samples = 2<br/>value = 5.306>, fillcolor="#f5cdb0"] ;
655 -> 656 ;
657 [label=<squared_error = 0.0<br/>samples = 1<br/>value = 4.394>, fillcolor="#f6d5be"] ;
656 -> 657 ;
658 [label=<squared_error = 0.0<br/>samples = 1<br/>value = 6.217>, fillcolor="#f3c4a3"] ;
656 -> 658 ;
659 [label=<Age of individual &le; 44.0<br/>squared_error = 0.013<br/>samples = 3<br/>value = 6.323>, fillcolor="#f3c3a1"] ;
655 -> 659 ;
660 [label=<squared_error = 0.0<br/>samples = 1<br/>value = 6.217>, fillcolor="#f3c4a3"] ;
659 -> 660 ;
661 [label=<squared_error = 0.01<br/>samples = 2<br/>value = 6.377>, fillcolor="#f3c3a0"] ;
659 -> 661 ;
662 [label=<squared_error = 0.0<br/>samples = 1<br/>value = 4.875>, fillcolor="#f5d1b7"] ;
654 -> 662 ;
663 [label=<squared_error = 0.0<br/>samples = 3<br/>value = 0.0>, fillcolor="#ffffff"] ;
653 -> 663 ;
664 [label=<log1p(Current checking account balance) &le; 6.545<br/>squared_error = 1.486<br/>samples = 116<br/>value = 0.28>, fillcolor="#fefcfb"] ;
650 -> 664 ;
665 [label=<Age of individual &le; 38.0<br/>squared_error = 0.511<br/>samples = 80<br/>value = 0.08>, fillcolor="#fffefe"] ;
664 -> 665 ;
666 [label=<Typical year income &le; 0.015<br/>squared_error = 5.065<br/>samples = 7<br/>value = 0.919>, fillcolor="#fdf6f1"] ;
665 -> 666 ;
667 [label=<squared_error = 0.0<br/>samples = 6<br/>value = 0.0>, fillcolor="#ffffff"] ;
666 -> 667 ;
668 [label=<squared_error = 0.0<br/>samples = 1<br/>value = 6.431>, fillcolor="#f2c29f"] ;
666 -> 668 ;
669 [label=<squared_error = 0.0<br/>samples = 73<br/>value = 0.0>, fillcolor="#ffffff"] ;
665 -> 669 ;
670 [label=<Age of individual &le; 53.5<br/>squared_error = 3.37<br/>samples = 36<br/>value = 0.723>, fillcolor="#fef8f4"] ;
664 -> 670 ;
671 [label=<Age of individual &le; 48.5<br/>squared_error = 6.113<br/>samples = 16<br/>value = 1.627>, fillcolor="#fcf0e7"] ;
670 -> 671 ;
672 [label=<log1p(Current checking account balance) &le; 6.587<br/>squared_error = 2.106<br/>samples = 13<br/>value = 0.619>, fillcolor="#fef9f6"] ;
671 -> 672 ;
673 [label=<squared_error = 0.008<br/>samples = 2<br/>value = 4.021>, fillcolor="#f7d9c3"] ;
672 -> 673 ;
674 [label=<squared_error = 0.0<br/>samples = 11<br/>value = 0.0>, fillcolor="#ffffff"] ;
672 -> 674 ;
675 [label=<squared_error = 0.0<br/>samples = 3<br/>value = 5.994>, fillcolor="#f3c6a6"] ;
671 -> 675 ;
676 [label=<squared_error = -0.0<br/>samples = 20<br/>value = 0.0>, fillcolor="#ffffff"] ;
670 -> 676 ;
677 [label=<Age of individual &le; 56.5<br/>squared_error = 12.44<br/>samples = 23<br/>value = 2.533>, fillcolor="#fae7d9"] ;
649 -> 677 ;
678 [label=<Typical year income &le; 0.018<br/>squared_error = 13.25<br/>samples = 10<br/>value = 4.313>, fillcolor="#f7d6bf"] ;
677 -> 678 ;
679 [label=<Age of individual &le; 45.0<br/>squared_error = 8.513<br/>samples = 6<br/>value = 1.988>, fillcolor="#fbece1"] ;
678 -> 679 ;
680 [label=<log1p(Current checking account balance) &le; 7.242<br/>squared_error = 1.821<br/>samples = 2<br/>value = 5.965>, fillcolor="#f3c7a6"] ;
679 -> 680 ;
681 [label=<squared_error = 0.0<br/>samples = 1<br/>value = 7.314>, fillcolor="#f1ba92"] ;
680 -> 681 ;
682 [label=<squared_error = 0.0<br/>samples = 1<br/>value = 4.615>, fillcolor="#f6d3ba"] ;
680 -> 682 ;
683 [label=<squared_error = 0.0<br/>samples = 4<br/>value = 0.0>, fillcolor="#ffffff"] ;
679 -> 683 ;
684 [label=<squared_error = 0.083<br/>samples = 4<br/>value = 7.801>, fillcolor="#f0b58b"] ;
678 -> 684 ;
685 [label=<log1p(Current checking account balance) &le; 7.168<br/>squared_error = 7.505<br/>samples = 13<br/>value = 1.164>, fillcolor="#fdf4ee"] ;
677 -> 685 ;
686 [label=<Age of individual &le; 59.5<br/>squared_error = 12.939<br/>samples = 3<br/>value = 5.045>, fillcolor="#f5cfb4"] ;
685 -> 686 ;
687 [label=<squared_error = 0.0<br/>samples = 1<br/>value = 0.0>, fillcolor="#ffffff"] ;
686 -> 687 ;
688 [label=<log1p(Current checking account balance) &le; 7.047<br/>squared_error = 0.318<br/>samples = 2<br/>value = 7.568>, fillcolor="#f0b78f"] ;
686 -> 688 ;
689 [label=<squared_error = 0.0<br/>samples = 1<br/>value = 7.004>, fillcolor="#f1bd97"] ;
688 -> 689 ;
690 [label=<squared_error = -0.0<br/>samples = 1<br/>value = 8.132>, fillcolor="#efb286"] ;
688 -> 690 ;
691 [label=<squared_error = 0.0<br/>samples = 10<br/>value = 0.0>, fillcolor="#ffffff"] ;
685 -> 691 ;
692 [label=<Highest level of educational attainment &le; 5.5<br/>squared_error = 12.085<br/>samples = 67<br/>value = 2.018>, fillcolor="#fbece1"] ;
648 -> 692 ;
693 [label=<log1p(Current checking account balance) &le; 6.733<br/>squared_error = 9.519<br/>samples = 53<br/>value = 1.386>, fillcolor="#fcf2ea"] ;
692 -> 693 ;
694 [label=<log1p(Current checking account balance) &le; 6.619<br/>squared_error = 14.214<br/>samples = 30<br/>value = 2.449>, fillcolor="#fae8db"] ;
693 -> 694 ;
695 [label=<Age of individual &le; 78.5<br/>squared_error = 10.919<br/>samples = 26<br/>value = 1.594>, fillcolor="#fcf0e7"] ;
694 -> 695 ;
696 [label=<squared_error = 0.0<br/>samples = 17<br/>value = 0.0>, fillcolor="#ffffff"] ;
695 -> 696 ;
697 [label=<log1p(Current checking account balance) &le; 6.414<br/>squared_error = 17.674<br/>samples = 9<br/>value = 4.605>, fillcolor="#f6d3bb"] ;
695 -> 697 ;
698 [label=<Age of individual &le; 81.0<br/>squared_error = 1.271<br/>samples = 5<br/>value = 8.29>, fillcolor="#efb184"] ;
697 -> 698 ;
699 [label=<squared_error = 0.0<br/>samples = 3<br/>value = 9.21>, fillcolor="#eda876"] ;
698 -> 699 ;
700 [label=<squared_error = 0.0<br/>samples = 2<br/>value = 6.909>, fillcolor="#f2be98"] ;
698 -> 700 ;
701 [label=<squared_error = -0.0<br/>samples = 4<br/>value = 0.0>, fillcolor="#ffffff"] ;
697 -> 701 ;
702 [label=<squared_error = 0.0<br/>samples = 4<br/>value = 8.007>, fillcolor="#efb388"] ;
694 -> 702 ;
703 [label=<squared_error = 0.0<br/>samples = 23<br/>value = 0.0>, fillcolor="#ffffff"] ;
693 -> 703 ;
704 [label=<Age of individual &le; 73.0<br/>squared_error = 14.576<br/>samples = 14<br/>value = 4.407>, fillcolor="#f6d5bd"] ;
692 -> 704 ;
705 [label=<Age of individual &le; 69.5<br/>squared_error = 0.012<br/>samples = 8<br/>value = 7.713>, fillcolor="#f0b68c"] ;
704 -> 705 ;
706 [label=<squared_error = 0.0<br/>samples = 4<br/>value = 7.601>, fillcolor="#f0b78e"] ;
705 -> 706 ;
707 [label=<squared_error = 0.0<br/>samples = 4<br/>value = 7.824>, fillcolor="#f0b58b"] ;
705 -> 707 ;
708 [label=<squared_error = -0.0<br/>samples = 6<br/>value = 0.0>, fillcolor="#ffffff"] ;
704 -> 708 ;
709 [label=<log1p(Total education loan borrowed)^2 &le; 114.136<br/>squared_error = 10.972<br/>samples = 26<br/>value = 5.06>, fillcolor="#f5cfb4"] ;
637 -> 709 ;
710 [label=<log1p(Total education loan borrowed) &le; 10.274<br/>squared_error = 2.108<br/>samples = 19<br/>value = 6.924>, fillcolor="#f1be98"] ;
709 -> 710 ;
711 [label=<Age of individual &le; 45.0<br/>squared_error = 0.676<br/>samples = 13<br/>value = 6.12>, fillcolor="#f3c5a4"] ;
710 -> 711 ;
712 [label=<Typical year income &le; 0.031<br/>squared_error = 0.619<br/>samples = 7<br/>value = 6.647>, fillcolor="#f2c09c"] ;
711 -> 712 ;
713 [label=<log1p(Total education loan borrowed) &le; 8.777<br/>squared_error = 0.035<br/>samples = 5<br/>value = 6.592>, fillcolor="#f2c19d"] ;
712 -> 713 ;
714 [label=<squared_error = 0.0<br/>samples = 1<br/>value = 6.217>, fillcolor="#f3c4a3"] ;
713 -> 714 ;
715 [label=<squared_error = 0.0<br/>samples = 4<br/>value = 6.686>, fillcolor="#f2c09c"] ;
713 -> 715 ;
716 [label=<squared_error = 2.051<br/>samples = 2<br/>value = 6.784>, fillcolor="#f2bf9a"] ;
712 -> 716 ;
717 [label=<log1p(Total education loan borrowed) &le; 8.21<br/>squared_error = 0.041<br/>samples = 6<br/>value = 5.505>, fillcolor="#f4cbad"] ;
711 -> 717 ;
718 [label=<log1p(Total education loan borrowed)^2 &le; 65.393<br/>squared_error = 0.0<br/>samples = 3<br/>value = 5.707>, fillcolor="#f4c9aa"] ;
717 -> 718 ;
719 [label=<squared_error = 0.0<br/>samples = 2<br/>value = 5.707>, fillcolor="#f4c9aa"] ;
718 -> 719 ;
720 [label=<squared_error = -0.0<br/>samples = 1<br/>value = 5.707>, fillcolor="#f4c9aa"] ;
718 -> 720 ;
721 [label=<log1p(Total education loan borrowed)^2 &le; 69.603<br/>squared_error = 0.0<br/>samples = 3<br/>value = 5.303>, fillcolor="#f5cdb0"] ;
717 -> 721 ;
722 [label=<squared_error = 0.0<br/>samples = 1<br/>value = 5.303>, fillcolor="#f5cdb0"] ;
721 -> 722 ;
723 [label=<squared_error = 0.0<br/>samples = 2<br/>value = 5.303>, fillcolor="#f5cdb0"] ;
721 -> 723 ;
724 [label=<Age of individual &le; 61.5<br/>squared_error = 0.777<br/>samples = 6<br/>value = 8.665>, fillcolor="#eead7e"] ;
710 -> 724 ;
725 [label=<squared_error = 0.0<br/>samples = 3<br/>value = 7.784>, fillcolor="#f0b58b"] ;
724 -> 725 ;
726 [label=<squared_error = -0.0<br/>samples = 3<br/>value = 9.547>, fillcolor="#eca571"] ;
724 -> 726 ;
727 [label=<Highest level of educational attainment &le; 4.5<br/>squared_error = 0.0<br/>samples = 7<br/>value = 0.0>, fillcolor="#ffffff"] ;
709 -> 727 ;
728 [label=<squared_error = 0.0<br/>samples = 3<br/>value = 0.0>, fillcolor="#ffffff"] ;
727 -> 728 ;
729 [label=<squared_error = 0.0<br/>samples = 4<br/>value = 0.0>, fillcolor="#ffffff"] ;
727 -> 729 ;
730 [label=<log1p(Current checking account balance) &le; 6.545<br/>squared_error = 15.831<br/>samples = 1910<br/>value = 3.488>, fillcolor="#f8decb"] ;
636 -> 730 ;
731 [label=<Years in college &le; 1.5<br/>squared_error = 13.344<br/>samples = 885<br/>value = 2.783>, fillcolor="#fae5d6"] ;
730 -> 731 ;
732 [label=<Typical year income &le; 0.044<br/>squared_error = 11.641<br/>samples = 650<br/>value = 2.428>, fillcolor="#fae8db"] ;
731 -> 732 ;
733 [label=<log1p(Total education loan borrowed)^2 &le; 80.659<br/>squared_error = 10.878<br/>samples = 541<br/>value = 2.219>, fillcolor="#fbeade"] ;
732 -> 733 ;
734 [label=<Typical year income &le; 0.021<br/>squared_error = 10.777<br/>samples = 473<br/>value = 2.061>, fillcolor="#fbece0"] ;
733 -> 734 ;
735 [label=<Age of individual &le; 81.5<br/>squared_error = 11.0<br/>samples = 428<br/>value = 2.183>, fillcolor="#fbeadf"] ;
734 -> 735 ;
736 [label=<Age of individual &le; 79.0<br/>squared_error = 11.267<br/>samples = 409<br/>value = 2.271>, fillcolor="#fbeadd"] ;
735 -> 736 ;
737 [label=<Age of individual &le; 74.5<br/>squared_error = 10.823<br/>samples = 400<br/>value = 2.177>, fillcolor="#fbeadf"] ;
736 -> 737 ;
738 [label=<Highest level of educational attainment &le; 8.5<br/>squared_error = 11.084<br/>samples = 383<br/>value = 2.274>, fillcolor="#fbe9dd"] ;
737 -> 738 ;
739 [label=<Age of individual &le; 60.5<br/>squared_error = 10.235<br/>samples = 296<br/>value = 2.059>, fillcolor="#fbece0"] ;
738 -> 739 ;
740 [label=<log1p(Current checking account balance) &le; 6.186<br/>squared_error = 10.377<br/>samples = 216<br/>value = 2.348>, fillcolor="#fae9dc"] ;
739 -> 740 ;
741 [label=<log1p(Current checking account balance) &le; 5.69<br/>squared_error = 9.467<br/>samples = 124<br/>value = 1.876>, fillcolor="#fbede3"] ;
740 -> 741 ;
742 [label=<Age of individual &le; 32.0<br/>squared_error = 12.615<br/>samples = 44<br/>value = 3.203>, fillcolor="#f9e1cf"] ;
741 -> 742 ;
743 [label=<Age of individual &le; 26.0<br/>squared_error = 15.099<br/>samples = 18<br/>value = 4.666>, fillcolor="#f6d3ba"] ;
742 -> 743 ;
744 [label=<Typical year income &le; 0.009<br/>squared_error = 5.845<br/>samples = 7<br/>value = 0.987>, fillcolor="#fdf6f0"] ;
743 -> 744 ;
745 [label=<squared_error = 0.0<br/>samples = 6<br/>value = 0.0>, fillcolor="#ffffff"] ;
744 -> 745 ;
746 [label=<squared_error = 0.0<br/>samples = 1<br/>value = 6.909>, fillcolor="#f2be98"] ;
744 -> 746 ;
747 [label=<Typical year income &le; 0.005<br/>squared_error = 6.895<br/>samples = 11<br/>value = 7.007>, fillcolor="#f1bd97"] ;
743 -> 747 ;
748 [label=<Age of individual &le; 30.0<br/>squared_error = 2.184<br/>samples = 10<br/>value = 7.708>, fillcolor="#f0b68c"] ;
747 -> 748 ;
749 [label=<Age of individual &le; 28.0<br/>squared_error = 2.068<br/>samples = 5<br/>value = 6.635>, fillcolor="#f2c09c"] ;
748 -> 749 ;
750 [label=<log1p(Current checking account balance) &le; 5.619<br/>squared_error = 0.005<br/>samples = 3<br/>value = 7.809>, fillcolor="#f0b58b"] ;
749 -> 750 ;
751 [label=<squared_error = 0.0<br/>samples = 1<br/>value = 7.741>, fillcolor="#f0b68c"] ;
750 -> 751 ;
752 [label=<squared_error = 0.003<br/>samples = 2<br/>value = 7.843>, fillcolor="#f0b58a"] ;
750 -> 752 ;
753 [label=<squared_error = 0.0<br/>samples = 2<br/>value = 4.875>, fillcolor="#f5d1b7"] ;
749 -> 753 ;
754 [label=<squared_error = -0.0<br/>samples = 5<br/>value = 8.78>, fillcolor="#eeac7c"] ;
748 -> 754 ;
755 [label=<squared_error = 0.0<br/>samples = 1<br/>value = 0.0>, fillcolor="#ffffff"] ;
747 -> 755 ;
756 [label=<log1p(Current checking account balance) &le; 5.464<br/>squared_error = 8.389<br/>samples = 26<br/>value = 2.191>, fillcolor="#fbeade"] ;
742 -> 756 ;
757 [label=<Age of individual &le; 40.0<br/>squared_error = 6.982<br/>samples = 16<br/>value = 0.999>, fillcolor="#fdf6f0"] ;
756 -> 757 ;
758 [label=<Age of individual &le; 35.5<br/>squared_error = 16.027<br/>samples = 2<br/>value = 4.003>, fillcolor="#f7d9c3"] ;
757 -> 758 ;
759 [label=<squared_error = 0.0<br/>samples = 1<br/>value = 0.0>, fillcolor="#ffffff"] ;
758 -> 759 ;
760 [label=<squared_error = 0.0<br/>samples = 1<br/>value = 8.007>, fillcolor="#efb388"] ;
758 -> 760 ;
761 [label=<Age of individual &le; 49.5<br/>squared_error = 4.216<br/>samples = 14<br/>value = 0.569>, fillcolor="#fefaf7"] ;
757 -> 761 ;
762 [label=<squared_error = 0.0<br/>samples = 12<br/>value = 0.0>, fillcolor="#ffffff"] ;
761 -> 762 ;
763 [label=<Age of individual &le; 52.5<br/>squared_error = 15.891<br/>samples = 2<br/>value = 3.986>, fillcolor="#f7d9c4"] ;
761 -> 763 ;
764 [label=<squared_error = 0.0<br/>samples = 1<br/>value = 7.973>, fillcolor="#efb488"] ;
763 -> 764 ;
765 [label=<squared_error = 0.0<br/>samples = 1<br/>value = 0.0>, fillcolor="#ffffff"] ;
763 -> 765 ;
766 [label=<log1p(Current checking account balance) &le; 5.601<br/>squared_error = 4.729<br/>samples = 10<br/>value = 4.098>, fillcolor="#f7d8c2"] ;
756 -> 766 ;
767 [label=<Age of individual &le; 56.0<br/>squared_error = 0.293<br/>samples = 7<br/>value = 5.364>, fillcolor="#f5ccaf"] ;
766 -> 767 ;
768 [label=<Age of individual &le; 49.0<br/>squared_error = 0.036<br/>samples = 6<br/>value = 5.573>, fillcolor="#f4caac"] ;
767 -> 768 ;
769 [label=<squared_error = 0.0<br/>samples = 4<br/>value = 5.707>, fillcolor="#f4c9aa"] ;
768 -> 769 ;
770 [label=<squared_error = 0.0<br/>samples = 2<br/>value = 5.303>, fillcolor="#f5cdb0"] ;
768 -> 770 ;
771 [label=<squared_error = 0.0<br/>samples = 1<br/>value = 4.111>, fillcolor="#f7d8c2"] ;
767 -> 771 ;
772 [label=<Age of individual &le; 54.0<br/>squared_error = 2.621<br/>samples = 3<br/>value = 1.145>, fillcolor="#fdf4ee"] ;
766 -> 772 ;
773 [label=<squared_error = 0.0<br/>samples = 2<br/>value = 0.0>, fillcolor="#ffffff"] ;
772 -> 773 ;
774 [label=<squared_error = 0.0<br/>samples = 1<br/>value = 3.434>, fillcolor="#f8dfcc"] ;
772 -> 774 ;
775 [label=<log1p(Total education loan borrowed)^2 &le; 52.687<br/>squared_error = 6.234<br/>samples = 80<br/>value = 1.145>, fillcolor="#fdf4ee"] ;
741 -> 775 ;
776 [label=<Typical year income &le; 0.01<br/>squared_error = 5.132<br/>samples = 77<br/>value = 0.921>, fillcolor="#fdf6f1"] ;
775 -> 776 ;
777 [label=<Age of individual &le; 45.5<br/>squared_error = 4.722<br/>samples = 76<br/>value = 0.842>, fillcolor="#fdf7f2"] ;
776 -> 777 ;
778 [label=<Age of individual &le; 39.5<br/>squared_error = 7.195<br/>samples = 41<br/>value = 1.416>, fillcolor="#fcf2ea"] ;
777 -> 778 ;
779 [label=<Age of individual &le; 27.5<br/>squared_error = 2.113<br/>samples = 27<br/>value = 0.285>, fillcolor="#fefcfb"] ;
778 -> 779 ;
780 [label=<Age of individual &le; 24.0<br/>squared_error = 7.254<br/>samples = 7<br/>value = 1.1>, fillcolor="#fdf5ef"] ;
779 -> 780 ;
781 [label=<squared_error = 0.0<br/>samples = 3<br/>value = 0.0>, fillcolor="#ffffff"] ;
780 -> 781 ;
782 [label=<squared_error = 11.107<br/>samples = 4<br/>value = 1.924>, fillcolor="#fbede2"] ;
780 -> 782 ;
783 [label=<squared_error = 0.0<br/>samples = 20<br/>value = 0.0>, fillcolor="#ffffff"] ;
779 -> 783 ;
784 [label=<log1p(Current checking account balance) &le; 5.955<br/>squared_error = 9.778<br/>samples = 14<br/>value = 3.596>, fillcolor="#f8ddca"] ;
778 -> 784 ;
785 [label=<Age of individual &le; 42.5<br/>squared_error = 8.894<br/>samples = 12<br/>value = 4.195>, fillcolor="#f7d7c1"] ;
784 -> 785 ;
786 [label=<log1p(Current checking account balance) &le; 5.739<br/>squared_error = 8.707<br/>samples = 10<br/>value = 4.641>, fillcolor="#f6d3ba"] ;
785 -> 786 ;
